digraph Tree {
node [shape=box] ;
0 [label="X[55] <= 2.955\ngini = 0.075\nsamples = 60816\nvalue = [58429, 2387]"] ;
1 [label="X[1] <= 27.5\ngini = 0.161\nsamples = 17039\nvalue = [15539, 1500]"] ;
0 -> 1 [labeldistance=2.5, labelangle=45, headlabel="True"] ;
2 [label="X[131] <= 47321.898\ngini = 0.047\nsamples = 8925\nvalue = [8708, 217]"] ;
1 -> 2 ;
3 [label="X[1] <= 25.5\ngini = 0.15\nsamples = 660\nvalue = [606, 54]"] ;
2 -> 3 ;
4 [label="X[108] <= 13.5\ngini = 0.107\nsamples = 547\nvalue = [516, 31]"] ;
3 -> 4 ;
5 [label="X[131] <= 47227.922\ngini = 0.101\nsamples = 544\nvalue = [515, 29]"] ;
4 -> 5 ;
6 [label="X[131] <= 13669.471\ngini = 0.098\nsamples = 543\nvalue = [515, 28]"] ;
5 -> 6 ;
7 [label="X[131] <= 12186.825\ngini = 0.5\nsamples = 2\nvalue = [1, 1]"] ;
6 -> 7 ;
8 [label="gini = 0.0\nsamples = 1\nvalue = [1, 0]"] ;
7 -> 8 ;
9 [label="gini = 0.0\nsamples = 1\nvalue = [0, 1]"] ;
7 -> 9 ;
10 [label="X[131] <= 33477.992\ngini = 0.095\nsamples = 541\nvalue = [514, 27]"] ;
6 -> 10 ;
11 [label="X[104] <= 1.5\ngini = 0.029\nsamples = 136\nvalue = [134, 2]"] ;
10 -> 11 ;
12 [label="X[131] <= 23717.34\ngini = 0.015\nsamples = 130\nvalue = [129, 1]"] ;
11 -> 12 ;
13 [label="X[131] <= 23345.641\ngini = 0.062\nsamples = 31\nvalue = [30, 1]"] ;
12 -> 13 ;
14 [label="gini = 0.0\nsamples = 30\nvalue = [30, 0]"] ;
13 -> 14 ;
15 [label="gini = 0.0\nsamples = 1\nvalue = [0, 1]"] ;
13 -> 15 ;
16 [label="gini = 0.0\nsamples = 99\nvalue = [99, 0]"] ;
12 -> 16 ;
17 [label="X[118] <= 5.7\ngini = 0.278\nsamples = 6\nvalue = [5, 1]"] ;
11 -> 17 ;
18 [label="X[131] <= 30554.656\ngini = 0.5\nsamples = 2\nvalue = [1, 1]"] ;
17 -> 18 ;
19 [label="gini = 0.0\nsamples = 1\nvalue = [0, 1]"] ;
18 -> 19 ;
20 [label="gini = 0.0\nsamples = 1\nvalue = [1, 0]"] ;
18 -> 20 ;
21 [label="gini = 0.0\nsamples = 4\nvalue = [4, 0]"] ;
17 -> 21 ;
22 [label="X[131] <= 33539.133\ngini = 0.116\nsamples = 405\nvalue = [380, 25]"] ;
10 -> 22 ;
23 [label="gini = 0.0\nsamples = 1\nvalue = [0, 1]"] ;
22 -> 23 ;
24 [label="X[1] <= 23.5\ngini = 0.112\nsamples = 404\nvalue = [380, 24]"] ;
22 -> 24 ;
25 [label="X[43] <= 4.5\ngini = 0.093\nsamples = 308\nvalue = [293, 15]"] ;
24 -> 25 ;
26 [label="X[131] <= 35883.465\ngini = 0.088\nsamples = 304\nvalue = [290, 14]"] ;
25 -> 26 ;
27 [label="gini = 0.0\nsamples = 36\nvalue = [36, 0]"] ;
26 -> 27 ;
28 [label="X[131] <= 35941.516\ngini = 0.099\nsamples = 268\nvalue = [254, 14]"] ;
26 -> 28 ;
29 [label="gini = 0.0\nsamples = 1\nvalue = [0, 1]"] ;
28 -> 29 ;
30 [label="X[131] <= 46096.094\ngini = 0.093\nsamples = 267\nvalue = [254, 13]"] ;
28 -> 30 ;
31 [label="X[131] <= 46075.996\ngini = 0.104\nsamples = 236\nvalue = [223, 13]"] ;
30 -> 31 ;
32 [label="X[131] <= 37030.398\ngini = 0.097\nsamples = 235\nvalue = [223, 12]"] ;
31 -> 32 ;
33 [label="gini = 0.0\nsamples = 28\nvalue = [28, 0]"] ;
32 -> 33 ;
34 [label="X[131] <= 37158.258\ngini = 0.109\nsamples = 207\nvalue = [195, 12]"] ;
32 -> 34 ;
35 [label="gini = 0.0\nsamples = 1\nvalue = [0, 1]"] ;
34 -> 35 ;
36 [label="X[104] <= 1.5\ngini = 0.101\nsamples = 206\nvalue = [195, 11]"] ;
34 -> 36 ;
37 [label="X[131] <= 38005.5\ngini = 0.095\nsamples = 200\nvalue = [190, 10]"] ;
36 -> 37 ;
38 [label="X[117] <= 1.5\ngini = 0.188\nsamples = 19\nvalue = [17, 2]"] ;
37 -> 38 ;
39 [label="gini = 0.0\nsamples = 17\nvalue = [17, 0]"] ;
38 -> 39 ;
40 [label="gini = 0.0\nsamples = 2\nvalue = [0, 2]"] ;
38 -> 40 ;
41 [label="X[131] <= 40202.219\ngini = 0.084\nsamples = 181\nvalue = [173, 8]"] ;
37 -> 41 ;
42 [label="gini = 0.0\nsamples = 40\nvalue = [40, 0]"] ;
41 -> 42 ;
43 [label="X[131] <= 40302.492\ngini = 0.107\nsamples = 141\nvalue = [133, 8]"] ;
41 -> 43 ;
44 [label="gini = 0.0\nsamples = 1\nvalue = [0, 1]"] ;
43 -> 44 ;
45 [label="X[105] <= 1.5\ngini = 0.095\nsamples = 140\nvalue = [133, 7]"] ;
43 -> 45 ;
46 [label="X[131] <= 44233.98\ngini = 0.085\nsamples = 135\nvalue = [129, 6]"] ;
45 -> 46 ;
47 [label="X[131] <= 42042.406\ngini = 0.047\nsamples = 83\nvalue = [81, 2]"] ;
46 -> 47 ;
48 [label="gini = 0.0\nsamples = 33\nvalue = [33, 0]"] ;
47 -> 48 ;
49 [label="X[131] <= 42063.824\ngini = 0.077\nsamples = 50\nvalue = [48, 2]"] ;
47 -> 49 ;
50 [label="gini = 0.0\nsamples = 1\nvalue = [0, 1]"] ;
49 -> 50 ;
51 [label="X[131] <= 43309.785\ngini = 0.04\nsamples = 49\nvalue = [48, 1]"] ;
49 -> 51 ;
52 [label="gini = 0.0\nsamples = 27\nvalue = [27, 0]"] ;
51 -> 52 ;
53 [label="X[131] <= 43354.844\ngini = 0.087\nsamples = 22\nvalue = [21, 1]"] ;
51 -> 53 ;
54 [label="gini = 0.0\nsamples = 1\nvalue = [0, 1]"] ;
53 -> 54 ;
55 [label="gini = 0.0\nsamples = 21\nvalue = [21, 0]"] ;
53 -> 55 ;
56 [label="X[131] <= 44384.312\ngini = 0.142\nsamples = 52\nvalue = [48, 4]"] ;
46 -> 56 ;
57 [label="gini = 0.0\nsamples = 1\nvalue = [0, 1]"] ;
56 -> 57 ;
58 [label="X[131] <= 44839.574\ngini = 0.111\nsamples = 51\nvalue = [48, 3]"] ;
56 -> 58 ;
59 [label="X[131] <= 44828.461\ngini = 0.245\nsamples = 14\nvalue = [12, 2]"] ;
58 -> 59 ;
60 [label="X[131] <= 44763.27\ngini = 0.142\nsamples = 13\nvalue = [12, 1]"] ;
59 -> 60 ;
61 [label="gini = 0.0\nsamples = 9\nvalue = [9, 0]"] ;
60 -> 61 ;
62 [label="X[131] <= 44775.93\ngini = 0.375\nsamples = 4\nvalue = [3, 1]"] ;
60 -> 62 ;
63 [label="gini = 0.0\nsamples = 1\nvalue = [0, 1]"] ;
62 -> 63 ;
64 [label="gini = 0.0\nsamples = 3\nvalue = [3, 0]"] ;
62 -> 64 ;
65 [label="gini = 0.0\nsamples = 1\nvalue = [0, 1]"] ;
59 -> 65 ;
66 [label="X[131] <= 45765.508\ngini = 0.053\nsamples = 37\nvalue = [36, 1]"] ;
58 -> 66 ;
67 [label="gini = 0.0\nsamples = 27\nvalue = [27, 0]"] ;
66 -> 67 ;
68 [label="X[131] <= 45784.242\ngini = 0.18\nsamples = 10\nvalue = [9, 1]"] ;
66 -> 68 ;
69 [label="gini = 0.0\nsamples = 1\nvalue = [0, 1]"] ;
68 -> 69 ;
70 [label="gini = 0.0\nsamples = 9\nvalue = [9, 0]"] ;
68 -> 70 ;
71 [label="X[117] <= 3.0\ngini = 0.32\nsamples = 5\nvalue = [4, 1]"] ;
45 -> 71 ;
72 [label="gini = 0.0\nsamples = 1\nvalue = [0, 1]"] ;
71 -> 72 ;
73 [label="gini = 0.0\nsamples = 4\nvalue = [4, 0]"] ;
71 -> 73 ;
74 [label="X[131] <= 40266.617\ngini = 0.278\nsamples = 6\nvalue = [5, 1]"] ;
36 -> 74 ;
75 [label="gini = 0.0\nsamples = 1\nvalue = [0, 1]"] ;
74 -> 75 ;
76 [label="gini = 0.0\nsamples = 5\nvalue = [5, 0]"] ;
74 -> 76 ;
77 [label="gini = 0.0\nsamples = 1\nvalue = [0, 1]"] ;
31 -> 77 ;
78 [label="gini = 0.0\nsamples = 31\nvalue = [31, 0]"] ;
30 -> 78 ;
79 [label="X[131] <= 43220.52\ngini = 0.375\nsamples = 4\nvalue = [3, 1]"] ;
25 -> 79 ;
80 [label="X[43] <= 7.5\ngini = 0.5\nsamples = 2\nvalue = [1, 1]"] ;
79 -> 80 ;
81 [label="gini = 0.0\nsamples = 1\nvalue = [0, 1]"] ;
80 -> 81 ;
82 [label="gini = 0.0\nsamples = 1\nvalue = [1, 0]"] ;
80 -> 82 ;
83 [label="gini = 0.0\nsamples = 2\nvalue = [2, 0]"] ;
79 -> 83 ;
84 [label="X[131] <= 46683.66\ngini = 0.17\nsamples = 96\nvalue = [87, 9]"] ;
24 -> 84 ;
85 [label="X[108] <= 4.5\ngini = 0.142\nsamples = 91\nvalue = [84, 7]"] ;
84 -> 85 ;
86 [label="X[131] <= 44319.449\ngini = 0.126\nsamples = 89\nvalue = [83, 6]"] ;
85 -> 86 ;
87 [label="X[131] <= 35882.055\ngini = 0.089\nsamples = 64\nvalue = [61, 3]"] ;
86 -> 87 ;
88 [label="X[131] <= 35681.742\ngini = 0.219\nsamples = 16\nvalue = [14, 2]"] ;
87 -> 88 ;
89 [label="gini = 0.0\nsamples = 13\nvalue = [13, 0]"] ;
88 -> 89 ;
90 [label="X[131] <= 35754.406\ngini = 0.444\nsamples = 3\nvalue = [1, 2]"] ;
88 -> 90 ;
91 [label="gini = 0.0\nsamples = 1\nvalue = [0, 1]"] ;
90 -> 91 ;
92 [label="X[131] <= 35787.074\ngini = 0.5\nsamples = 2\nvalue = [1, 1]"] ;
90 -> 92 ;
93 [label="gini = 0.0\nsamples = 1\nvalue = [1, 0]"] ;
92 -> 93 ;
94 [label="gini = 0.0\nsamples = 1\nvalue = [0, 1]"] ;
92 -> 94 ;
95 [label="X[117] <= 1.5\ngini = 0.041\nsamples = 48\nvalue = [47, 1]"] ;
87 -> 95 ;
96 [label="gini = 0.0\nsamples = 38\nvalue = [38, 0]"] ;
95 -> 96 ;
97 [label="X[131] <= 40062.359\ngini = 0.18\nsamples = 10\nvalue = [9, 1]"] ;
95 -> 97 ;
98 [label="gini = 0.0\nsamples = 5\nvalue = [5, 0]"] ;
97 -> 98 ;
99 [label="X[131] <= 40673.188\ngini = 0.32\nsamples = 5\nvalue = [4, 1]"] ;
97 -> 99 ;
100 [label="gini = 0.0\nsamples = 1\nvalue = [0, 1]"] ;
99 -> 100 ;
101 [label="gini = 0.0\nsamples = 4\nvalue = [4, 0]"] ;
99 -> 101 ;
102 [label="X[131] <= 44499.031\ngini = 0.211\nsamples = 25\nvalue = [22, 3]"] ;
86 -> 102 ;
103 [label="gini = 0.0\nsamples = 1\nvalue = [0, 1]"] ;
102 -> 103 ;
104 [label="X[1] <= 24.5\ngini = 0.153\nsamples = 24\nvalue = [22, 2]"] ;
102 -> 104 ;
105 [label="X[117] <= 1.5\ngini = 0.231\nsamples = 15\nvalue = [13, 2]"] ;
104 -> 105 ;
106 [label="X[131] <= 45174.961\ngini = 0.298\nsamples = 11\nvalue = [9, 2]"] ;
105 -> 106 ;
107 [label="gini = 0.0\nsamples = 3\nvalue = [3, 0]"] ;
106 -> 107 ;
108 [label="X[131] <= 45214.695\ngini = 0.375\nsamples = 8\nvalue = [6, 2]"] ;
106 -> 108 ;
109 [label="gini = 0.0\nsamples = 1\nvalue = [0, 1]"] ;
108 -> 109 ;
110 [label="X[131] <= 45628.5\ngini = 0.245\nsamples = 7\nvalue = [6, 1]"] ;
108 -> 110 ;
111 [label="gini = 0.0\nsamples = 3\nvalue = [3, 0]"] ;
110 -> 111 ;
112 [label="X[131] <= 46128.945\ngini = 0.375\nsamples = 4\nvalue = [3, 1]"] ;
110 -> 112 ;
113 [label="gini = 0.0\nsamples = 1\nvalue = [0, 1]"] ;
112 -> 113 ;
114 [label="gini = 0.0\nsamples = 3\nvalue = [3, 0]"] ;
112 -> 114 ;
115 [label="gini = 0.0\nsamples = 4\nvalue = [4, 0]"] ;
105 -> 115 ;
116 [label="gini = 0.0\nsamples = 9\nvalue = [9, 0]"] ;
104 -> 116 ;
117 [label="X[46] <= 0.6\ngini = 0.5\nsamples = 2\nvalue = [1, 1]"] ;
85 -> 117 ;
118 [label="gini = 0.0\nsamples = 1\nvalue = [0, 1]"] ;
117 -> 118 ;
119 [label="gini = 0.0\nsamples = 1\nvalue = [1, 0]"] ;
117 -> 119 ;
120 [label="X[1] <= 24.5\ngini = 0.48\nsamples = 5\nvalue = [3, 2]"] ;
84 -> 120 ;
121 [label="gini = 0.0\nsamples = 3\nvalue = [3, 0]"] ;
120 -> 121 ;
122 [label="gini = 0.0\nsamples = 2\nvalue = [0, 2]"] ;
120 -> 122 ;
123 [label="gini = 0.0\nsamples = 1\nvalue = [0, 1]"] ;
5 -> 123 ;
124 [label="X[108] <= 24.0\ngini = 0.444\nsamples = 3\nvalue = [1, 2]"] ;
4 -> 124 ;
125 [label="gini = 0.0\nsamples = 2\nvalue = [0, 2]"] ;
124 -> 125 ;
126 [label="gini = 0.0\nsamples = 1\nvalue = [1, 0]"] ;
124 -> 126 ;
127 [label="X[11] <= 0.5\ngini = 0.324\nsamples = 113\nvalue = [90, 23]"] ;
3 -> 127 ;
128 [label="gini = 0.0\nsamples = 3\nvalue = [0, 3]"] ;
127 -> 128 ;
129 [label="X[105] <= 1.5\ngini = 0.298\nsamples = 110\nvalue = [90, 20]"] ;
127 -> 129 ;
130 [label="X[108] <= 1.5\ngini = 0.28\nsamples = 107\nvalue = [89, 18]"] ;
129 -> 130 ;
131 [label="X[117] <= 1.5\ngini = 0.307\nsamples = 95\nvalue = [77, 18]"] ;
130 -> 131 ;
132 [label="X[131] <= 33864.812\ngini = 0.247\nsamples = 83\nvalue = [71, 12]"] ;
131 -> 132 ;
133 [label="X[1] <= 26.5\ngini = 0.444\nsamples = 18\nvalue = [12, 6]"] ;
132 -> 133 ;
134 [label="X[131] <= 33546.75\ngini = 0.278\nsamples = 12\nvalue = [10, 2]"] ;
133 -> 134 ;
135 [label="X[32] <= 0.5\ngini = 0.165\nsamples = 11\nvalue = [10, 1]"] ;
134 -> 135 ;
136 [label="gini = 0.0\nsamples = 1\nvalue = [0, 1]"] ;
135 -> 136 ;
137 [label="gini = 0.0\nsamples = 10\nvalue = [10, 0]"] ;
135 -> 137 ;
138 [label="gini = 0.0\nsamples = 1\nvalue = [0, 1]"] ;
134 -> 138 ;
139 [label="X[131] <= 26263.41\ngini = 0.444\nsamples = 6\nvalue = [2, 4]"] ;
133 -> 139 ;
140 [label="X[131] <= 23668.125\ngini = 0.444\nsamples = 3\nvalue = [2, 1]"] ;
139 -> 140 ;
141 [label="gini = 0.0\nsamples = 1\nvalue = [1, 0]"] ;
140 -> 141 ;
142 [label="X[131] <= 25416.855\ngini = 0.5\nsamples = 2\nvalue = [1, 1]"] ;
140 -> 142 ;
143 [label="gini = 0.0\nsamples = 1\nvalue = [0, 1]"] ;
142 -> 143 ;
144 [label="gini = 0.0\nsamples = 1\nvalue = [1, 0]"] ;
142 -> 144 ;
145 [label="gini = 0.0\nsamples = 3\nvalue = [0, 3]"] ;
139 -> 145 ;
146 [label="X[118] <= 6.87\ngini = 0.168\nsamples = 65\nvalue = [59, 6]"] ;
132 -> 146 ;
147 [label="X[131] <= 44994.66\ngini = 0.144\nsamples = 64\nvalue = [59, 5]"] ;
146 -> 147 ;
148 [label="X[131] <= 38548.695\ngini = 0.078\nsamples = 49\nvalue = [47, 2]"] ;
147 -> 148 ;
149 [label="X[131] <= 37240.695\ngini = 0.245\nsamples = 14\nvalue = [12, 2]"] ;
148 -> 149 ;
150 [label="gini = 0.0\nsamples = 11\nvalue = [11, 0]"] ;
149 -> 150 ;
151 [label="X[131] <= 37312.992\ngini = 0.444\nsamples = 3\nvalue = [1, 2]"] ;
149 -> 151 ;
152 [label="gini = 0.0\nsamples = 1\nvalue = [0, 1]"] ;
151 -> 152 ;
153 [label="X[131] <= 37808.039\ngini = 0.5\nsamples = 2\nvalue = [1, 1]"] ;
151 -> 153 ;
154 [label="gini = 0.0\nsamples = 1\nvalue = [1, 0]"] ;
153 -> 154 ;
155 [label="gini = 0.0\nsamples = 1\nvalue = [0, 1]"] ;
153 -> 155 ;
156 [label="gini = 0.0\nsamples = 35\nvalue = [35, 0]"] ;
148 -> 156 ;
157 [label="X[131] <= 45145.203\ngini = 0.32\nsamples = 15\nvalue = [12, 3]"] ;
147 -> 157 ;
158 [label="gini = 0.0\nsamples = 1\nvalue = [0, 1]"] ;
157 -> 158 ;
159 [label="X[32] <= 0.5\ngini = 0.245\nsamples = 14\nvalue = [12, 2]"] ;
157 -> 159 ;
160 [label="X[104] <= 1.5\ngini = 0.5\nsamples = 2\nvalue = [1, 1]"] ;
159 -> 160 ;
161 [label="gini = 0.0\nsamples = 1\nvalue = [0, 1]"] ;
160 -> 161 ;
162 [label="gini = 0.0\nsamples = 1\nvalue = [1, 0]"] ;
160 -> 162 ;
163 [label="X[131] <= 46610.789\ngini = 0.153\nsamples = 12\nvalue = [11, 1]"] ;
159 -> 163 ;
164 [label="gini = 0.0\nsamples = 7\nvalue = [7, 0]"] ;
163 -> 164 ;
165 [label="X[131] <= 46657.727\ngini = 0.32\nsamples = 5\nvalue = [4, 1]"] ;
163 -> 165 ;
166 [label="gini = 0.0\nsamples = 1\nvalue = [0, 1]"] ;
165 -> 166 ;
167 [label="gini = 0.0\nsamples = 4\nvalue = [4, 0]"] ;
165 -> 167 ;
168 [label="gini = 0.0\nsamples = 1\nvalue = [0, 1]"] ;
146 -> 168 ;
169 [label="X[131] <= 38004.391\ngini = 0.5\nsamples = 12\nvalue = [6, 6]"] ;
131 -> 169 ;
170 [label="X[131] <= 34640.355\ngini = 0.32\nsamples = 5\nvalue = [4, 1]"] ;
169 -> 170 ;
171 [label="X[32] <= 0.5\ngini = 0.5\nsamples = 2\nvalue = [1, 1]"] ;
170 -> 171 ;
172 [label="gini = 0.0\nsamples = 1\nvalue = [1, 0]"] ;
171 -> 172 ;
173 [label="gini = 0.0\nsamples = 1\nvalue = [0, 1]"] ;
171 -> 173 ;
174 [label="gini = 0.0\nsamples = 3\nvalue = [3, 0]"] ;
170 -> 174 ;
175 [label="X[1] <= 26.5\ngini = 0.408\nsamples = 7\nvalue = [2, 5]"] ;
169 -> 175 ;
176 [label="X[131] <= 41913.719\ngini = 0.444\nsamples = 3\nvalue = [2, 1]"] ;
175 -> 176 ;
177 [label="gini = 0.0\nsamples = 1\nvalue = [0, 1]"] ;
176 -> 177 ;
178 [label="gini = 0.0\nsamples = 2\nvalue = [2, 0]"] ;
176 -> 178 ;
179 [label="gini = 0.0\nsamples = 4\nvalue = [0, 4]"] ;
175 -> 179 ;
180 [label="gini = 0.0\nsamples = 12\nvalue = [12, 0]"] ;
130 -> 180 ;
181 [label="X[34] <= 1.5\ngini = 0.444\nsamples = 3\nvalue = [1, 2]"] ;
129 -> 181 ;
182 [label="gini = 0.0\nsamples = 2\nvalue = [0, 2]"] ;
181 -> 182 ;
183 [label="gini = 0.0\nsamples = 1\nvalue = [1, 0]"] ;
181 -> 183 ;
184 [label="X[47] <= 2.745\ngini = 0.039\nsamples = 8265\nvalue = [8102, 163]"] ;
2 -> 184 ;
185 [label="X[104] <= 24.0\ngini = 0.038\nsamples = 8264\nvalue = [8102, 162]"] ;
184 -> 185 ;
186 [label="X[1] <= 25.5\ngini = 0.038\nsamples = 8263\nvalue = [8102, 161]"] ;
185 -> 186 ;
187 [label="X[131] <= 124746.148\ngini = 0.032\nsamples = 6986\nvalue = [6872, 114]"] ;
186 -> 187 ;
188 [label="X[131] <= 124668.25\ngini = 0.041\nsamples = 4591\nvalue = [4496, 95]"] ;
187 -> 188 ;
189 [label="X[117] <= 1.5\ngini = 0.04\nsamples = 4590\nvalue = [4496, 94]"] ;
188 -> 189 ;
190 [label="X[131] <= 57083.445\ngini = 0.035\nsamples = 4061\nvalue = [3988, 73]"] ;
189 -> 190 ;
191 [label="X[131] <= 56961.629\ngini = 0.077\nsamples = 397\nvalue = [381, 16]"] ;
190 -> 191 ;
192 [label="X[107] <= 1.5\ngini = 0.073\nsamples = 396\nvalue = [381, 15]"] ;
191 -> 192 ;
193 [label="X[131] <= 49419.914\ngini = 0.058\nsamples = 371\nvalue = [360, 11]"] ;
192 -> 193 ;
194 [label="gini = 0.0\nsamples = 80\nvalue = [80, 0]"] ;
193 -> 194 ;
195 [label="X[131] <= 49461.117\ngini = 0.073\nsamples = 291\nvalue = [280, 11]"] ;
193 -> 195 ;
196 [label="gini = 0.0\nsamples = 1\nvalue = [0, 1]"] ;
195 -> 196 ;
197 [label="X[131] <= 49522.062\ngini = 0.067\nsamples = 290\nvalue = [280, 10]"] ;
195 -> 197 ;
198 [label="X[131] <= 49518.719\ngini = 0.375\nsamples = 4\nvalue = [3, 1]"] ;
197 -> 198 ;
199 [label="gini = 0.0\nsamples = 3\nvalue = [3, 0]"] ;
198 -> 199 ;
200 [label="gini = 0.0\nsamples = 1\nvalue = [0, 1]"] ;
198 -> 200 ;
201 [label="X[1] <= 23.5\ngini = 0.061\nsamples = 286\nvalue = [277, 9]"] ;
197 -> 201 ;
202 [label="X[131] <= 56253.016\ngini = 0.046\nsamples = 214\nvalue = [209, 5]"] ;
201 -> 202 ;
203 [label="X[32] <= 0.5\ngini = 0.032\nsamples = 187\nvalue = [184, 3]"] ;
202 -> 203 ;
204 [label="X[131] <= 53894.492\ngini = 0.08\nsamples = 24\nvalue = [23, 1]"] ;
203 -> 204 ;
205 [label="gini = 0.0\nsamples = 16\nvalue = [16, 0]"] ;
204 -> 205 ;
206 [label="X[131] <= 54365.594\ngini = 0.219\nsamples = 8\nvalue = [7, 1]"] ;
204 -> 206 ;
207 [label="gini = 0.0\nsamples = 1\nvalue = [0, 1]"] ;
206 -> 207 ;
208 [label="gini = 0.0\nsamples = 7\nvalue = [7, 0]"] ;
206 -> 208 ;
209 [label="X[131] <= 54871.562\ngini = 0.024\nsamples = 163\nvalue = [161, 2]"] ;
203 -> 209 ;
210 [label="X[131] <= 51863.672\ngini = 0.016\nsamples = 125\nvalue = [124, 1]"] ;
209 -> 210 ;
211 [label="X[131] <= 51768.676\ngini = 0.044\nsamples = 44\nvalue = [43, 1]"] ;
210 -> 211 ;
212 [label="gini = 0.0\nsamples = 43\nvalue = [43, 0]"] ;
211 -> 212 ;
213 [label="gini = 0.0\nsamples = 1\nvalue = [0, 1]"] ;
211 -> 213 ;
214 [label="gini = 0.0\nsamples = 81\nvalue = [81, 0]"] ;
210 -> 214 ;
215 [label="X[131] <= 54872.719\ngini = 0.051\nsamples = 38\nvalue = [37, 1]"] ;
209 -> 215 ;
216 [label="gini = 0.0\nsamples = 1\nvalue = [0, 1]"] ;
215 -> 216 ;
217 [label="gini = 0.0\nsamples = 37\nvalue = [37, 0]"] ;
215 -> 217 ;
218 [label="X[131] <= 56254.32\ngini = 0.137\nsamples = 27\nvalue = [25, 2]"] ;
202 -> 218 ;
219 [label="gini = 0.0\nsamples = 1\nvalue = [0, 1]"] ;
218 -> 219 ;
220 [label="X[131] <= 56599.203\ngini = 0.074\nsamples = 26\nvalue = [25, 1]"] ;
218 -> 220 ;
221 [label="gini = 0.0\nsamples = 13\nvalue = [13, 0]"] ;
220 -> 221 ;
222 [label="X[131] <= 56608.711\ngini = 0.142\nsamples = 13\nvalue = [12, 1]"] ;
220 -> 222 ;
223 [label="gini = 0.0\nsamples = 1\nvalue = [0, 1]"] ;
222 -> 223 ;
224 [label="gini = 0.0\nsamples = 12\nvalue = [12, 0]"] ;
222 -> 224 ;
225 [label="X[131] <= 55148.895\ngini = 0.105\nsamples = 72\nvalue = [68, 4]"] ;
201 -> 225 ;
226 [label="X[131] <= 54829.938\ngini = 0.131\nsamples = 57\nvalue = [53, 4]"] ;
225 -> 226 ;
227 [label="X[131] <= 50468.656\ngini = 0.101\nsamples = 56\nvalue = [53, 3]"] ;
226 -> 227 ;
228 [label="gini = 0.0\nsamples = 12\nvalue = [12, 0]"] ;
227 -> 228 ;
229 [label="X[131] <= 50510.984\ngini = 0.127\nsamples = 44\nvalue = [41, 3]"] ;
227 -> 229 ;
230 [label="gini = 0.0\nsamples = 1\nvalue = [0, 1]"] ;
229 -> 230 ;
231 [label="X[131] <= 52042.68\ngini = 0.089\nsamples = 43\nvalue = [41, 2]"] ;
229 -> 231 ;
232 [label="gini = 0.0\nsamples = 19\nvalue = [19, 0]"] ;
231 -> 232 ;
233 [label="X[131] <= 52069.68\ngini = 0.153\nsamples = 24\nvalue = [22, 2]"] ;
231 -> 233 ;
234 [label="gini = 0.0\nsamples = 1\nvalue = [0, 1]"] ;
233 -> 234 ;
235 [label="X[131] <= 53216.172\ngini = 0.083\nsamples = 23\nvalue = [22, 1]"] ;
233 -> 235 ;
236 [label="gini = 0.0\nsamples = 12\nvalue = [12, 0]"] ;
235 -> 236 ;
237 [label="X[131] <= 53274.992\ngini = 0.165\nsamples = 11\nvalue = [10, 1]"] ;
235 -> 237 ;
238 [label="gini = 0.0\nsamples = 1\nvalue = [0, 1]"] ;
237 -> 238 ;
239 [label="gini = 0.0\nsamples = 10\nvalue = [10, 0]"] ;
237 -> 239 ;
240 [label="gini = 0.0\nsamples = 1\nvalue = [0, 1]"] ;
226 -> 240 ;
241 [label="gini = 0.0\nsamples = 15\nvalue = [15, 0]"] ;
225 -> 241 ;
242 [label="X[42] <= 4.5\ngini = 0.269\nsamples = 25\nvalue = [21, 4]"] ;
192 -> 242 ;
243 [label="X[131] <= 56414.703\ngini = 0.219\nsamples = 24\nvalue = [21, 3]"] ;
242 -> 243 ;
244 [label="X[131] <= 52407.84\ngini = 0.159\nsamples = 23\nvalue = [21, 2]"] ;
243 -> 244 ;
245 [label="gini = 0.0\nsamples = 11\nvalue = [11, 0]"] ;
244 -> 245 ;
246 [label="X[131] <= 53044.828\ngini = 0.278\nsamples = 12\nvalue = [10, 2]"] ;
244 -> 246 ;
247 [label="gini = 0.0\nsamples = 1\nvalue = [0, 1]"] ;
246 -> 247 ;
248 [label="X[105] <= 1.5\ngini = 0.165\nsamples = 11\nvalue = [10, 1]"] ;
246 -> 248 ;
249 [label="X[131] <= 55490.16\ngini = 0.278\nsamples = 6\nvalue = [5, 1]"] ;
248 -> 249 ;
250 [label="X[131] <= 54405.422\ngini = 0.444\nsamples = 3\nvalue = [2, 1]"] ;
249 -> 250 ;
251 [label="gini = 0.0\nsamples = 2\nvalue = [2, 0]"] ;
250 -> 251 ;
252 [label="gini = 0.0\nsamples = 1\nvalue = [0, 1]"] ;
250 -> 252 ;
253 [label="gini = 0.0\nsamples = 3\nvalue = [3, 0]"] ;
249 -> 253 ;
254 [label="gini = 0.0\nsamples = 5\nvalue = [5, 0]"] ;
248 -> 254 ;
255 [label="gini = 0.0\nsamples = 1\nvalue = [0, 1]"] ;
243 -> 255 ;
256 [label="gini = 0.0\nsamples = 1\nvalue = [0, 1]"] ;
242 -> 256 ;
257 [label="gini = 0.0\nsamples = 1\nvalue = [0, 1]"] ;
191 -> 257 ;
258 [label="X[131] <= 117271.359\ngini = 0.031\nsamples = 3664\nvalue = [3607, 57]"] ;
190 -> 258 ;
259 [label="X[105] <= 1.5\ngini = 0.021\nsamples = 2327\nvalue = [2302, 25]"] ;
258 -> 259 ;
260 [label="X[131] <= 90723.281\ngini = 0.02\nsamples = 2293\nvalue = [2270, 23]"] ;
259 -> 260 ;
261 [label="X[131] <= 90709.305\ngini = 0.029\nsamples = 1427\nvalue = [1406, 21]"] ;
260 -> 261 ;
262 [label="X[32] <= 0.5\ngini = 0.028\nsamples = 1426\nvalue = [1406, 20]"] ;
261 -> 262 ;
263 [label="X[131] <= 83100.344\ngini = 0.054\nsamples = 216\nvalue = [210, 6]"] ;
262 -> 263 ;
264 [label="X[131] <= 61160.266\ngini = 0.022\nsamples = 178\nvalue = [176, 2]"] ;
263 -> 264 ;
265 [label="X[131] <= 61127.055\ngini = 0.108\nsamples = 35\nvalue = [33, 2]"] ;
264 -> 265 ;
266 [label="X[131] <= 58353.121\ngini = 0.057\nsamples = 34\nvalue = [33, 1]"] ;
265 -> 266 ;
267 [label="X[131] <= 58327.273\ngini = 0.165\nsamples = 11\nvalue = [10, 1]"] ;
266 -> 267 ;
268 [label="gini = 0.0\nsamples = 10\nvalue = [10, 0]"] ;
267 -> 268 ;
269 [label="gini = 0.0\nsamples = 1\nvalue = [0, 1]"] ;
267 -> 269 ;
270 [label="gini = 0.0\nsamples = 23\nvalue = [23, 0]"] ;
266 -> 270 ;
271 [label="gini = 0.0\nsamples = 1\nvalue = [0, 1]"] ;
265 -> 271 ;
272 [label="gini = 0.0\nsamples = 143\nvalue = [143, 0]"] ;
264 -> 272 ;
273 [label="X[131] <= 83469.672\ngini = 0.188\nsamples = 38\nvalue = [34, 4]"] ;
263 -> 273 ;
274 [label="gini = 0.0\nsamples = 1\nvalue = [0, 1]"] ;
273 -> 274 ;
275 [label="X[131] <= 89778.227\ngini = 0.149\nsamples = 37\nvalue = [34, 3]"] ;
273 -> 275 ;
276 [label="X[131] <= 85823.055\ngini = 0.114\nsamples = 33\nvalue = [31, 2]"] ;
275 -> 276 ;
277 [label="X[131] <= 85576.766\ngini = 0.231\nsamples = 15\nvalue = [13, 2]"] ;
276 -> 277 ;
278 [label="gini = 0.0\nsamples = 12\nvalue = [12, 0]"] ;
277 -> 278 ;
279 [label="X[131] <= 85705.984\ngini = 0.444\nsamples = 3\nvalue = [1, 2]"] ;
277 -> 279 ;
280 [label="gini = 0.0\nsamples = 1\nvalue = [0, 1]"] ;
279 -> 280 ;
281 [label="X[131] <= 85792.234\ngini = 0.5\nsamples = 2\nvalue = [1, 1]"] ;
279 -> 281 ;
282 [label="gini = 0.0\nsamples = 1\nvalue = [1, 0]"] ;
281 -> 282 ;
283 [label="gini = 0.0\nsamples = 1\nvalue = [0, 1]"] ;
281 -> 283 ;
284 [label="gini = 0.0\nsamples = 18\nvalue = [18, 0]"] ;
276 -> 284 ;
285 [label="X[131] <= 90037.219\ngini = 0.375\nsamples = 4\nvalue = [3, 1]"] ;
275 -> 285 ;
286 [label="gini = 0.0\nsamples = 1\nvalue = [0, 1]"] ;
285 -> 286 ;
287 [label="gini = 0.0\nsamples = 3\nvalue = [3, 0]"] ;
285 -> 287 ;
288 [label="X[1] <= 23.5\ngini = 0.023\nsamples = 1210\nvalue = [1196, 14]"] ;
262 -> 288 ;
289 [label="X[131] <= 89213.469\ngini = 0.016\nsamples = 890\nvalue = [883, 7]"] ;
288 -> 289 ;
290 [label="X[131] <= 80439.25\ngini = 0.014\nsamples = 860\nvalue = [854, 6]"] ;
289 -> 290 ;
291 [label="X[131] <= 80387.406\ngini = 0.018\nsamples = 655\nvalue = [649, 6]"] ;
290 -> 291 ;
292 [label="X[131] <= 76508.234\ngini = 0.015\nsamples = 654\nvalue = [649, 5]"] ;
291 -> 292 ;
293 [label="X[131] <= 70165.562\ngini = 0.011\nsamples = 557\nvalue = [554, 3]"] ;
292 -> 293 ;
294 [label="X[131] <= 70102.383\ngini = 0.016\nsamples = 365\nvalue = [362, 3]"] ;
293 -> 294 ;
295 [label="X[131] <= 62523.828\ngini = 0.011\nsamples = 364\nvalue = [362, 2]"] ;
294 -> 295 ;
296 [label="gini = 0.0\nsamples = 170\nvalue = [170, 0]"] ;
295 -> 296 ;
297 [label="X[131] <= 62545.965\ngini = 0.02\nsamples = 194\nvalue = [192, 2]"] ;
295 -> 297 ;
298 [label="gini = 0.0\nsamples = 1\nvalue = [0, 1]"] ;
297 -> 298 ;
299 [label="X[131] <= 67116.484\ngini = 0.01\nsamples = 193\nvalue = [192, 1]"] ;
297 -> 299 ;
300 [label="gini = 0.0\nsamples = 119\nvalue = [119, 0]"] ;
299 -> 300 ;
301 [label="X[131] <= 67170.859\ngini = 0.027\nsamples = 74\nvalue = [73, 1]"] ;
299 -> 301 ;
302 [label="gini = 0.0\nsamples = 1\nvalue = [0, 1]"] ;
301 -> 302 ;
303 [label="gini = 0.0\nsamples = 73\nvalue = [73, 0]"] ;
301 -> 303 ;
304 [label="gini = 0.0\nsamples = 1\nvalue = [0, 1]"] ;
294 -> 304 ;
305 [label="gini = 0.0\nsamples = 192\nvalue = [192, 0]"] ;
293 -> 305 ;
306 [label="X[131] <= 76557.641\ngini = 0.04\nsamples = 97\nvalue = [95, 2]"] ;
292 -> 306 ;
307 [label="gini = 0.0\nsamples = 1\nvalue = [0, 1]"] ;
306 -> 307 ;
308 [label="X[131] <= 77167.828\ngini = 0.021\nsamples = 96\nvalue = [95, 1]"] ;
306 -> 308 ;
309 [label="X[131] <= 77139.438\ngini = 0.083\nsamples = 23\nvalue = [22, 1]"] ;
308 -> 309 ;
310 [label="gini = 0.0\nsamples = 22\nvalue = [22, 0]"] ;
309 -> 310 ;
311 [label="gini = 0.0\nsamples = 1\nvalue = [0, 1]"] ;
309 -> 311 ;
312 [label="gini = 0.0\nsamples = 73\nvalue = [73, 0]"] ;
308 -> 312 ;
313 [label="gini = 0.0\nsamples = 1\nvalue = [0, 1]"] ;
291 -> 313 ;
314 [label="gini = 0.0\nsamples = 205\nvalue = [205, 0]"] ;
290 -> 314 ;
315 [label="X[131] <= 89258.906\ngini = 0.064\nsamples = 30\nvalue = [29, 1]"] ;
289 -> 315 ;
316 [label="gini = 0.0\nsamples = 1\nvalue = [0, 1]"] ;
315 -> 316 ;
317 [label="gini = 0.0\nsamples = 29\nvalue = [29, 0]"] ;
315 -> 317 ;
318 [label="X[131] <= 61110.078\ngini = 0.043\nsamples = 320\nvalue = [313, 7]"] ;
288 -> 318 ;
319 [label="X[131] <= 60909.523\ngini = 0.161\nsamples = 34\nvalue = [31, 3]"] ;
318 -> 319 ;
320 [label="X[131] <= 59432.656\ngini = 0.114\nsamples = 33\nvalue = [31, 2]"] ;
319 -> 320 ;
321 [label="gini = 0.0\nsamples = 19\nvalue = [19, 0]"] ;
320 -> 321 ;
322 [label="X[131] <= 59523.242\ngini = 0.245\nsamples = 14\nvalue = [12, 2]"] ;
320 -> 322 ;
323 [label="gini = 0.0\nsamples = 1\nvalue = [0, 1]"] ;
322 -> 323 ;
324 [label="X[131] <= 60556.078\ngini = 0.142\nsamples = 13\nvalue = [12, 1]"] ;
322 -> 324 ;
325 [label="gini = 0.0\nsamples = 9\nvalue = [9, 0]"] ;
324 -> 325 ;
326 [label="X[131] <= 60655.02\ngini = 0.375\nsamples = 4\nvalue = [3, 1]"] ;
324 -> 326 ;
327 [label="gini = 0.0\nsamples = 1\nvalue = [0, 1]"] ;
326 -> 327 ;
328 [label="gini = 0.0\nsamples = 3\nvalue = [3, 0]"] ;
326 -> 328 ;
329 [label="gini = 0.0\nsamples = 1\nvalue = [0, 1]"] ;
319 -> 329 ;
330 [label="X[1] <= 24.5\ngini = 0.028\nsamples = 286\nvalue = [282, 4]"] ;
318 -> 330 ;
331 [label="X[131] <= 84683.203\ngini = 0.013\nsamples = 151\nvalue = [150, 1]"] ;
330 -> 331 ;
332 [label="gini = 0.0\nsamples = 118\nvalue = [118, 0]"] ;
331 -> 332 ;
333 [label="X[131] <= 84850.531\ngini = 0.059\nsamples = 33\nvalue = [32, 1]"] ;
331 -> 333 ;
334 [label="gini = 0.0\nsamples = 1\nvalue = [0, 1]"] ;
333 -> 334 ;
335 [label="gini = 0.0\nsamples = 32\nvalue = [32, 0]"] ;
333 -> 335 ;
336 [label="X[131] <= 64488.703\ngini = 0.043\nsamples = 135\nvalue = [132, 3]"] ;
330 -> 336 ;
337 [label="X[131] <= 64228.949\ngini = 0.124\nsamples = 15\nvalue = [14, 1]"] ;
336 -> 337 ;
338 [label="gini = 0.0\nsamples = 14\nvalue = [14, 0]"] ;
337 -> 338 ;
339 [label="gini = 0.0\nsamples = 1\nvalue = [0, 1]"] ;
337 -> 339 ;
340 [label="X[131] <= 79283.375\ngini = 0.033\nsamples = 120\nvalue = [118, 2]"] ;
336 -> 340 ;
341 [label="X[131] <= 78974.398\ngini = 0.051\nsamples = 76\nvalue = [74, 2]"] ;
340 -> 341 ;
342 [label="X[131] <= 72455.5\ngini = 0.026\nsamples = 75\nvalue = [74, 1]"] ;
341 -> 342 ;
343 [label="X[131] <= 72280.344\ngini = 0.056\nsamples = 35\nvalue = [34, 1]"] ;
342 -> 343 ;
344 [label="gini = 0.0\nsamples = 34\nvalue = [34, 0]"] ;
343 -> 344 ;
345 [label="gini = 0.0\nsamples = 1\nvalue = [0, 1]"] ;
343 -> 345 ;
346 [label="gini = 0.0\nsamples = 40\nvalue = [40, 0]"] ;
342 -> 346 ;
347 [label="gini = 0.0\nsamples = 1\nvalue = [0, 1]"] ;
341 -> 347 ;
348 [label="gini = 0.0\nsamples = 44\nvalue = [44, 0]"] ;
340 -> 348 ;
349 [label="gini = 0.0\nsamples = 1\nvalue = [0, 1]"] ;
261 -> 349 ;
350 [label="X[131] <= 102295.031\ngini = 0.005\nsamples = 866\nvalue = [864, 2]"] ;
260 -> 350 ;
351 [label="X[131] <= 102245.414\ngini = 0.01\nsamples = 396\nvalue = [394, 2]"] ;
350 -> 351 ;
352 [label="X[131] <= 99886.711\ngini = 0.005\nsamples = 395\nvalue = [394, 1]"] ;
351 -> 352 ;
353 [label="gini = 0.0\nsamples = 319\nvalue = [319, 0]"] ;
352 -> 353 ;
354 [label="X[131] <= 99931.695\ngini = 0.026\nsamples = 76\nvalue = [75, 1]"] ;
352 -> 354 ;
355 [label="gini = 0.0\nsamples = 1\nvalue = [0, 1]"] ;
354 -> 355 ;
356 [label="gini = 0.0\nsamples = 75\nvalue = [75, 0]"] ;
354 -> 356 ;
357 [label="gini = 0.0\nsamples = 1\nvalue = [0, 1]"] ;
351 -> 357 ;
358 [label="gini = 0.0\nsamples = 470\nvalue = [470, 0]"] ;
350 -> 358 ;
359 [label="X[131] <= 106253.359\ngini = 0.111\nsamples = 34\nvalue = [32, 2]"] ;
259 -> 359 ;
360 [label="X[131] <= 67343.75\ngini = 0.069\nsamples = 28\nvalue = [27, 1]"] ;
359 -> 360 ;
361 [label="X[131] <= 65683.727\ngini = 0.219\nsamples = 8\nvalue = [7, 1]"] ;
360 -> 361 ;
362 [label="gini = 0.0\nsamples = 7\nvalue = [7, 0]"] ;
361 -> 362 ;
363 [label="gini = 0.0\nsamples = 1\nvalue = [0, 1]"] ;
361 -> 363 ;
364 [label="gini = 0.0\nsamples = 20\nvalue = [20, 0]"] ;
360 -> 364 ;
365 [label="X[131] <= 109033.375\ngini = 0.278\nsamples = 6\nvalue = [5, 1]"] ;
359 -> 365 ;
366 [label="gini = 0.0\nsamples = 1\nvalue = [0, 1]"] ;
365 -> 366 ;
367 [label="gini = 0.0\nsamples = 5\nvalue = [5, 0]"] ;
365 -> 367 ;
368 [label="X[118] <= 0.015\ngini = 0.047\nsamples = 1337\nvalue = [1305, 32]"] ;
258 -> 368 ;
369 [label="X[1] <= 23.5\ngini = 0.05\nsamples = 1260\nvalue = [1228, 32]"] ;
368 -> 369 ;
370 [label="X[105] <= 1.5\ngini = 0.044\nsamples = 941\nvalue = [920, 21]"] ;
369 -> 370 ;
371 [label="X[131] <= 123122.953\ngini = 0.042\nsamples = 926\nvalue = [906, 20]"] ;
370 -> 371 ;
372 [label="X[131] <= 123094.32\ngini = 0.044\nsamples = 897\nvalue = [877, 20]"] ;
371 -> 372 ;
373 [label="X[32] <= 0.5\ngini = 0.042\nsamples = 896\nvalue = [877, 19]"] ;
372 -> 373 ;
374 [label="X[131] <= 121238.344\ngini = 0.058\nsamples = 166\nvalue = [161, 5]"] ;
373 -> 374 ;
375 [label="X[1] <= 22.5\ngini = 0.049\nsamples = 159\nvalue = [155, 4]"] ;
374 -> 375 ;
376 [label="gini = 0.0\nsamples = 13\nvalue = [13, 0]"] ;
375 -> 376 ;
377 [label="X[131] <= 117826.781\ngini = 0.053\nsamples = 146\nvalue = [142, 4]"] ;
375 -> 377 ;
378 [label="X[0] <= 1.5\ngini = 0.057\nsamples = 137\nvalue = [133, 4]"] ;
377 -> 378 ;
379 [label="gini = 0.0\nsamples = 7\nvalue = [7, 0]"] ;
378 -> 379 ;
380 [label="X[107] <= 1.5\ngini = 0.06\nsamples = 130\nvalue = [126, 4]"] ;
378 -> 380 ;
381 [label="gini = 0.061\nsamples = 128\nvalue = [124, 4]"] ;
380 -> 381 ;
382 [label="gini = 0.0\nsamples = 2\nvalue = [2, 0]"] ;
380 -> 382 ;
383 [label="gini = 0.0\nsamples = 9\nvalue = [9, 0]"] ;
377 -> 383 ;
384 [label="X[131] <= 121451.703\ngini = 0.245\nsamples = 7\nvalue = [6, 1]"] ;
374 -> 384 ;
385 [label="gini = 0.0\nsamples = 1\nvalue = [0, 1]"] ;
384 -> 385 ;
386 [label="gini = 0.0\nsamples = 6\nvalue = [6, 0]"] ;
384 -> 386 ;
387 [label="X[131] <= 117368.297\ngini = 0.038\nsamples = 730\nvalue = [716, 14]"] ;
373 -> 387 ;
388 [label="X[107] <= 1.5\ngini = 0.042\nsamples = 660\nvalue = [646, 14]"] ;
387 -> 388 ;
389 [label="X[43] <= 4.5\ngini = 0.043\nsamples = 640\nvalue = [626, 14]"] ;
388 -> 389 ;
390 [label="X[0] <= -499998.5\ngini = 0.043\nsamples = 631\nvalue = [617, 14]"] ;
389 -> 390 ;
391 [label="gini = 0.0\nsamples = 3\nvalue = [3, 0]"] ;
390 -> 391 ;
392 [label="X[31] <= 0.5\ngini = 0.044\nsamples = 628\nvalue = [614, 14]"] ;
390 -> 392 ;
393 [label="X[7] <= 120.0\ngini = 0.044\nsamples = 626\nvalue = [612, 14]"] ;
392 -> 393 ;
394 [label="X[0] <= 6.0\ngini = 0.044\nsamples = 625\nvalue = [611, 14]"] ;
393 -> 394 ;
395 [label="X[11] <= 0.5\ngini = 0.044\nsamples = 624\nvalue = [610, 14]"] ;
394 -> 395 ;
396 [label="gini = 0.0\nsamples = 1\nvalue = [1, 0]"] ;
395 -> 396 ;
397 [label="gini = 0.044\nsamples = 623\nvalue = [609, 14]"] ;
395 -> 397 ;
398 [label="gini = 0.0\nsamples = 1\nvalue = [1, 0]"] ;
394 -> 398 ;
399 [label="gini = 0.0\nsamples = 1\nvalue = [1, 0]"] ;
393 -> 399 ;
400 [label="gini = 0.0\nsamples = 2\nvalue = [2, 0]"] ;
392 -> 400 ;
401 [label="gini = 0.0\nsamples = 9\nvalue = [9, 0]"] ;
389 -> 401 ;
402 [label="gini = 0.0\nsamples = 20\nvalue = [20, 0]"] ;
388 -> 402 ;
403 [label="gini = 0.0\nsamples = 70\nvalue = [70, 0]"] ;
387 -> 403 ;
404 [label="gini = 0.0\nsamples = 1\nvalue = [0, 1]"] ;
372 -> 404 ;
405 [label="gini = 0.0\nsamples = 29\nvalue = [29, 0]"] ;
371 -> 405 ;
406 [label="X[107] <= 4.5\ngini = 0.124\nsamples = 15\nvalue = [14, 1]"] ;
370 -> 406 ;
407 [label="X[32] <= 0.5\ngini = 0.18\nsamples = 10\nvalue = [9, 1]"] ;
406 -> 407 ;
408 [label="gini = 0.0\nsamples = 1\nvalue = [1, 0]"] ;
407 -> 408 ;
409 [label="gini = 0.198\nsamples = 9\nvalue = [8, 1]"] ;
407 -> 409 ;
410 [label="gini = 0.0\nsamples = 5\nvalue = [5, 0]"] ;
406 -> 410 ;
411 [label="X[32] <= 0.5\ngini = 0.067\nsamples = 319\nvalue = [308, 11]"] ;
369 -> 411 ;
412 [label="gini = 0.0\nsamples = 54\nvalue = [54, 0]"] ;
411 -> 412 ;
413 [label="X[131] <= 118917.828\ngini = 0.08\nsamples = 265\nvalue = [254, 11]"] ;
411 -> 413 ;
414 [label="X[131] <= 118762.078\ngini = 0.093\nsamples = 225\nvalue = [214, 11]"] ;
413 -> 414 ;
415 [label="X[107] <= 1.5\ngini = 0.085\nsamples = 224\nvalue = [214, 10]"] ;
414 -> 415 ;
416 [label="X[131] <= 117439.062\ngini = 0.091\nsamples = 210\nvalue = [200, 10]"] ;
415 -> 416 ;
417 [label="X[0] <= -499998.5\ngini = 0.095\nsamples = 201\nvalue = [191, 10]"] ;
416 -> 417 ;
418 [label="gini = 0.0\nsamples = 2\nvalue = [2, 0]"] ;
417 -> 418 ;
419 [label="X[11] <= 0.5\ngini = 0.095\nsamples = 199\nvalue = [189, 10]"] ;
417 -> 419 ;
420 [label="gini = 0.0\nsamples = 2\nvalue = [2, 0]"] ;
419 -> 420 ;
421 [label="X[108] <= 1.5\ngini = 0.096\nsamples = 197\nvalue = [187, 10]"] ;
419 -> 421 ;
422 [label="X[1] <= 24.5\ngini = 0.097\nsamples = 196\nvalue = [186, 10]"] ;
421 -> 422 ;
423 [label="gini = 0.097\nsamples = 117\nvalue = [111, 6]"] ;
422 -> 423 ;
424 [label="gini = 0.096\nsamples = 79\nvalue = [75, 4]"] ;
422 -> 424 ;
425 [label="gini = 0.0\nsamples = 1\nvalue = [1, 0]"] ;
421 -> 425 ;
426 [label="gini = 0.0\nsamples = 9\nvalue = [9, 0]"] ;
416 -> 426 ;
427 [label="gini = 0.0\nsamples = 14\nvalue = [14, 0]"] ;
415 -> 427 ;
428 [label="gini = 0.0\nsamples = 1\nvalue = [0, 1]"] ;
414 -> 428 ;
429 [label="gini = 0.0\nsamples = 40\nvalue = [40, 0]"] ;
413 -> 429 ;
430 [label="gini = 0.0\nsamples = 77\nvalue = [77, 0]"] ;
368 -> 430 ;
431 [label="X[118] <= 0.03\ngini = 0.076\nsamples = 529\nvalue = [508, 21]"] ;
189 -> 431 ;
432 [label="X[104] <= 4.5\ngini = 0.106\nsamples = 373\nvalue = [352, 21]"] ;
431 -> 432 ;
433 [label="X[131] <= 58215.555\ngini = 0.102\nsamples = 370\nvalue = [350, 20]"] ;
432 -> 433 ;
434 [label="gini = 0.0\nsamples = 40\nvalue = [40, 0]"] ;
433 -> 434 ;
435 [label="X[131] <= 58990.516\ngini = 0.114\nsamples = 330\nvalue = [310, 20]"] ;
433 -> 435 ;
436 [label="gini = 0.0\nsamples = 1\nvalue = [0, 1]"] ;
435 -> 436 ;
437 [label="X[131] <= 70179.047\ngini = 0.109\nsamples = 329\nvalue = [310, 19]"] ;
435 -> 437 ;
438 [label="X[117] <= 13.5\ngini = 0.194\nsamples = 46\nvalue = [41, 5]"] ;
437 -> 438 ;
439 [label="X[104] <= 1.5\ngini = 0.162\nsamples = 45\nvalue = [41, 4]"] ;
438 -> 439 ;
440 [label="X[117] <= 4.5\ngini = 0.127\nsamples = 44\nvalue = [41, 3]"] ;
439 -> 440 ;
441 [label="X[1] <= 24.5\ngini = 0.204\nsamples = 26\nvalue = [23, 3]"] ;
440 -> 441 ;
442 [label="X[1] <= 23.5\ngini = 0.255\nsamples = 20\nvalue = [17, 3]"] ;
441 -> 442 ;
443 [label="X[131] <= 64656.09\ngini = 0.198\nsamples = 18\nvalue = [16, 2]"] ;
442 -> 443 ;
444 [label="X[131] <= 63902.938\ngini = 0.298\nsamples = 11\nvalue = [9, 2]"] ;
443 -> 444 ;
445 [label="X[131] <= 61384.008\ngini = 0.18\nsamples = 10\nvalue = [9, 1]"] ;
444 -> 445 ;
446 [label="X[131] <= 60725.625\ngini = 0.375\nsamples = 4\nvalue = [3, 1]"] ;
445 -> 446 ;
447 [label="gini = 0.0\nsamples = 3\nvalue = [3, 0]"] ;
446 -> 447 ;
448 [label="gini = 0.0\nsamples = 1\nvalue = [0, 1]"] ;
446 -> 448 ;
449 [label="gini = 0.0\nsamples = 6\nvalue = [6, 0]"] ;
445 -> 449 ;
450 [label="gini = 0.0\nsamples = 1\nvalue = [0, 1]"] ;
444 -> 450 ;
451 [label="gini = 0.0\nsamples = 7\nvalue = [7, 0]"] ;
443 -> 451 ;
452 [label="X[131] <= 67235.281\ngini = 0.5\nsamples = 2\nvalue = [1, 1]"] ;
442 -> 452 ;
453 [label="gini = 0.0\nsamples = 1\nvalue = [1, 0]"] ;
452 -> 453 ;
454 [label="gini = 0.0\nsamples = 1\nvalue = [0, 1]"] ;
452 -> 454 ;
455 [label="gini = 0.0\nsamples = 6\nvalue = [6, 0]"] ;
441 -> 455 ;
456 [label="gini = 0.0\nsamples = 18\nvalue = [18, 0]"] ;
440 -> 456 ;
457 [label="gini = 0.0\nsamples = 1\nvalue = [0, 1]"] ;
439 -> 457 ;
458 [label="gini = 0.0\nsamples = 1\nvalue = [0, 1]"] ;
438 -> 458 ;
459 [label="X[131] <= 78712.797\ngini = 0.094\nsamples = 283\nvalue = [269, 14]"] ;
437 -> 459 ;
460 [label="gini = 0.0\nsamples = 40\nvalue = [40, 0]"] ;
459 -> 460 ;
461 [label="X[131] <= 78856.844\ngini = 0.109\nsamples = 243\nvalue = [229, 14]"] ;
459 -> 461 ;
462 [label="gini = 0.0\nsamples = 1\nvalue = [0, 1]"] ;
461 -> 462 ;
463 [label="X[131] <= 80311.578\ngini = 0.102\nsamples = 242\nvalue = [229, 13]"] ;
461 -> 463 ;
464 [label="X[32] <= 0.5\ngini = 0.375\nsamples = 4\nvalue = [3, 1]"] ;
463 -> 464 ;
465 [label="gini = 0.0\nsamples = 1\nvalue = [0, 1]"] ;
464 -> 465 ;
466 [label="gini = 0.0\nsamples = 3\nvalue = [3, 0]"] ;
464 -> 466 ;
467 [label="X[131] <= 117472.422\ngini = 0.096\nsamples = 238\nvalue = [226, 12]"] ;
463 -> 467 ;
468 [label="X[131] <= 117048.625\ngini = 0.107\nsamples = 212\nvalue = [200, 12]"] ;
467 -> 468 ;
469 [label="X[131] <= 88671.516\ngini = 0.067\nsamples = 116\nvalue = [112, 4]"] ;
468 -> 469 ;
470 [label="X[131] <= 88569.703\ngini = 0.157\nsamples = 35\nvalue = [32, 3]"] ;
469 -> 470 ;
471 [label="X[131] <= 86370.672\ngini = 0.111\nsamples = 34\nvalue = [32, 2]"] ;
470 -> 471 ;
472 [label="gini = 0.0\nsamples = 21\nvalue = [21, 0]"] ;
471 -> 472 ;
473 [label="X[131] <= 86554.328\ngini = 0.26\nsamples = 13\nvalue = [11, 2]"] ;
471 -> 473 ;
474 [label="gini = 0.0\nsamples = 1\nvalue = [0, 1]"] ;
473 -> 474 ;
475 [label="X[1] <= 24.5\ngini = 0.153\nsamples = 12\nvalue = [11, 1]"] ;
473 -> 475 ;
476 [label="gini = 0.0\nsamples = 10\nvalue = [10, 0]"] ;
475 -> 476 ;
477 [label="X[131] <= 87338.43\ngini = 0.5\nsamples = 2\nvalue = [1, 1]"] ;
475 -> 477 ;
478 [label="gini = 0.0\nsamples = 1\nvalue = [1, 0]"] ;
477 -> 478 ;
479 [label="gini = 0.0\nsamples = 1\nvalue = [0, 1]"] ;
477 -> 479 ;
480 [label="gini = 0.0\nsamples = 1\nvalue = [0, 1]"] ;
470 -> 480 ;
481 [label="X[131] <= 108200.312\ngini = 0.024\nsamples = 81\nvalue = [80, 1]"] ;
469 -> 481 ;
482 [label="gini = 0.0\nsamples = 55\nvalue = [55, 0]"] ;
481 -> 482 ;
483 [label="X[131] <= 108344.969\ngini = 0.074\nsamples = 26\nvalue = [25, 1]"] ;
481 -> 483 ;
484 [label="gini = 0.0\nsamples = 1\nvalue = [0, 1]"] ;
483 -> 484 ;
485 [label="gini = 0.0\nsamples = 25\nvalue = [25, 0]"] ;
483 -> 485 ;
486 [label="X[117] <= 7.5\ngini = 0.153\nsamples = 96\nvalue = [88, 8]"] ;
468 -> 486 ;
487 [label="X[107] <= 1.5\ngini = 0.127\nsamples = 88\nvalue = [82, 6]"] ;
486 -> 487 ;
488 [label="X[1] <= 24.5\ngini = 0.153\nsamples = 72\nvalue = [66, 6]"] ;
487 -> 488 ;
489 [label="X[1] <= 23.5\ngini = 0.172\nsamples = 63\nvalue = [57, 6]"] ;
488 -> 489 ;
490 [label="X[117] <= 4.5\ngini = 0.137\nsamples = 54\nvalue = [50, 4]"] ;
489 -> 490 ;
491 [label="X[32] <= 0.5\ngini = 0.165\nsamples = 44\nvalue = [40, 4]"] ;
490 -> 491 ;
492 [label="gini = 0.219\nsamples = 8\nvalue = [7, 1]"] ;
491 -> 492 ;
493 [label="X[34] <= 0.5\ngini = 0.153\nsamples = 36\nvalue = [33, 3]"] ;
491 -> 493 ;
494 [label="X[108] <= 1.5\ngini = 0.157\nsamples = 35\nvalue = [32, 3]"] ;
493 -> 494 ;
495 [label="X[11] <= 0.5\ngini = 0.161\nsamples = 34\nvalue = [31, 3]"] ;
494 -> 495 ;
496 [label="gini = 0.0\nsamples = 1\nvalue = [1, 0]"] ;
495 -> 496 ;
497 [label="gini = 0.165\nsamples = 33\nvalue = [30, 3]"] ;
495 -> 497 ;
498 [label="gini = 0.0\nsamples = 1\nvalue = [1, 0]"] ;
494 -> 498 ;
499 [label="gini = 0.0\nsamples = 1\nvalue = [1, 0]"] ;
493 -> 499 ;
500 [label="gini = 0.0\nsamples = 10\nvalue = [10, 0]"] ;
490 -> 500 ;
501 [label="X[108] <= 1.5\ngini = 0.346\nsamples = 9\nvalue = [7, 2]"] ;
489 -> 501 ;
502 [label="X[117] <= 4.5\ngini = 0.408\nsamples = 7\nvalue = [5, 2]"] ;
501 -> 502 ;
503 [label="X[32] <= 0.5\ngini = 0.32\nsamples = 5\nvalue = [4, 1]"] ;
502 -> 503 ;
504 [label="gini = 0.0\nsamples = 1\nvalue = [1, 0]"] ;
503 -> 504 ;
505 [label="gini = 0.375\nsamples = 4\nvalue = [3, 1]"] ;
503 -> 505 ;
506 [label="gini = 0.5\nsamples = 2\nvalue = [1, 1]"] ;
502 -> 506 ;
507 [label="gini = 0.0\nsamples = 2\nvalue = [2, 0]"] ;
501 -> 507 ;
508 [label="gini = 0.0\nsamples = 9\nvalue = [9, 0]"] ;
488 -> 508 ;
509 [label="gini = 0.0\nsamples = 16\nvalue = [16, 0]"] ;
487 -> 509 ;
510 [label="X[105] <= 1.5\ngini = 0.375\nsamples = 8\nvalue = [6, 2]"] ;
486 -> 510 ;
511 [label="X[117] <= 10.5\ngini = 0.245\nsamples = 7\nvalue = [6, 1]"] ;
510 -> 511 ;
512 [label="X[1] <= 23.5\ngini = 0.375\nsamples = 4\nvalue = [3, 1]"] ;
511 -> 512 ;
513 [label="gini = 0.444\nsamples = 3\nvalue = [2, 1]"] ;
512 -> 513 ;
514 [label="gini = 0.0\nsamples = 1\nvalue = [1, 0]"] ;
512 -> 514 ;
515 [label="gini = 0.0\nsamples = 3\nvalue = [3, 0]"] ;
511 -> 515 ;
516 [label="gini = 0.0\nsamples = 1\nvalue = [0, 1]"] ;
510 -> 516 ;
517 [label="gini = 0.0\nsamples = 26\nvalue = [26, 0]"] ;
467 -> 517 ;
518 [label="X[117] <= 7.5\ngini = 0.444\nsamples = 3\nvalue = [2, 1]"] ;
432 -> 518 ;
519 [label="gini = 0.0\nsamples = 2\nvalue = [2, 0]"] ;
518 -> 519 ;
520 [label="gini = 0.0\nsamples = 1\nvalue = [0, 1]"] ;
518 -> 520 ;
521 [label="gini = 0.0\nsamples = 156\nvalue = [156, 0]"] ;
431 -> 521 ;
522 [label="gini = 0.0\nsamples = 1\nvalue = [0, 1]"] ;
188 -> 522 ;
523 [label="X[131] <= 626904.0\ngini = 0.016\nsamples = 2395\nvalue = [2376, 19]"] ;
187 -> 523 ;
524 [label="X[105] <= 4.5\ngini = 0.014\nsamples = 2318\nvalue = [2302, 16]"] ;
523 -> 524 ;
525 [label="X[117] <= 4.5\ngini = 0.013\nsamples = 2299\nvalue = [2284, 15]"] ;
524 -> 525 ;
526 [label="X[131] <= 247120.969\ngini = 0.012\nsamples = 2228\nvalue = [2215, 13]"] ;
525 -> 526 ;
527 [label="X[131] <= 177128.156\ngini = 0.009\nsamples = 1713\nvalue = [1705, 8]"] ;
526 -> 527 ;
528 [label="X[131] <= 177095.312\ngini = 0.015\nsamples = 1074\nvalue = [1066, 8]"] ;
527 -> 528 ;
529 [label="X[32] <= 0.5\ngini = 0.013\nsamples = 1073\nvalue = [1066, 7]"] ;
528 -> 529 ;
530 [label="X[131] <= 153844.188\ngini = 0.033\nsamples = 179\nvalue = [176, 3]"] ;
529 -> 530 ;
531 [label="X[131] <= 153770.266\ngini = 0.051\nsamples = 115\nvalue = [112, 3]"] ;
530 -> 531 ;
532 [label="X[131] <= 139018.938\ngini = 0.034\nsamples = 114\nvalue = [112, 2]"] ;
531 -> 532 ;
533 [label="X[131] <= 138591.969\ngini = 0.063\nsamples = 61\nvalue = [59, 2]"] ;
532 -> 533 ;
534 [label="X[131] <= 131546.188\ngini = 0.033\nsamples = 60\nvalue = [59, 1]"] ;
533 -> 534 ;
535 [label="X[131] <= 131271.25\ngini = 0.069\nsamples = 28\nvalue = [27, 1]"] ;
534 -> 535 ;
536 [label="gini = 0.0\nsamples = 27\nvalue = [27, 0]"] ;
535 -> 536 ;
537 [label="gini = 0.0\nsamples = 1\nvalue = [0, 1]"] ;
535 -> 537 ;
538 [label="gini = 0.0\nsamples = 32\nvalue = [32, 0]"] ;
534 -> 538 ;
539 [label="gini = 0.0\nsamples = 1\nvalue = [0, 1]"] ;
533 -> 539 ;
540 [label="gini = 0.0\nsamples = 53\nvalue = [53, 0]"] ;
532 -> 540 ;
541 [label="gini = 0.0\nsamples = 1\nvalue = [0, 1]"] ;
531 -> 541 ;
542 [label="gini = 0.0\nsamples = 64\nvalue = [64, 0]"] ;
530 -> 542 ;
543 [label="X[131] <= 142915.906\ngini = 0.009\nsamples = 894\nvalue = [890, 4]"] ;
529 -> 543 ;
544 [label="gini = 0.0\nsamples = 358\nvalue = [358, 0]"] ;
543 -> 544 ;
545 [label="X[131] <= 142973.812\ngini = 0.015\nsamples = 536\nvalue = [532, 4]"] ;
543 -> 545 ;
546 [label="gini = 0.0\nsamples = 1\nvalue = [0, 1]"] ;
545 -> 546 ;
547 [label="X[131] <= 144771.031\ngini = 0.011\nsamples = 535\nvalue = [532, 3]"] ;
545 -> 547 ;
548 [label="X[131] <= 144678.375\ngini = 0.069\nsamples = 28\nvalue = [27, 1]"] ;
547 -> 548 ;
549 [label="gini = 0.0\nsamples = 27\nvalue = [27, 0]"] ;
548 -> 549 ;
550 [label="gini = 0.0\nsamples = 1\nvalue = [0, 1]"] ;
548 -> 550 ;
551 [label="X[131] <= 158170.469\ngini = 0.008\nsamples = 507\nvalue = [505, 2]"] ;
547 -> 551 ;
552 [label="gini = 0.0\nsamples = 221\nvalue = [221, 0]"] ;
551 -> 552 ;
553 [label="X[131] <= 158208.469\ngini = 0.014\nsamples = 286\nvalue = [284, 2]"] ;
551 -> 553 ;
554 [label="gini = 0.0\nsamples = 1\nvalue = [0, 1]"] ;
553 -> 554 ;
555 [label="X[131] <= 165808.625\ngini = 0.007\nsamples = 285\nvalue = [284, 1]"] ;
553 -> 555 ;
556 [label="X[131] <= 165751.25\ngini = 0.017\nsamples = 119\nvalue = [118, 1]"] ;
555 -> 556 ;
557 [label="gini = 0.0\nsamples = 118\nvalue = [118, 0]"] ;
556 -> 557 ;
558 [label="gini = 0.0\nsamples = 1\nvalue = [0, 1]"] ;
556 -> 558 ;
559 [label="gini = 0.0\nsamples = 166\nvalue = [166, 0]"] ;
555 -> 559 ;
560 [label="gini = 0.0\nsamples = 1\nvalue = [0, 1]"] ;
528 -> 560 ;
561 [label="gini = 0.0\nsamples = 639\nvalue = [639, 0]"] ;
527 -> 561 ;
562 [label="X[131] <= 247212.625\ngini = 0.019\nsamples = 515\nvalue = [510, 5]"] ;
526 -> 562 ;
563 [label="gini = 0.0\nsamples = 1\nvalue = [0, 1]"] ;
562 -> 563 ;
564 [label="X[131] <= 276270.781\ngini = 0.015\nsamples = 514\nvalue = [510, 4]"] ;
562 -> 564 ;
565 [label="gini = 0.0\nsamples = 124\nvalue = [124, 0]"] ;
564 -> 565 ;
566 [label="X[131] <= 276826.938\ngini = 0.02\nsamples = 390\nvalue = [386, 4]"] ;
564 -> 566 ;
567 [label="gini = 0.0\nsamples = 1\nvalue = [0, 1]"] ;
566 -> 567 ;
568 [label="X[1] <= 23.5\ngini = 0.015\nsamples = 389\nvalue = [386, 3]"] ;
566 -> 568 ;
569 [label="X[131] <= 291386.375\ngini = 0.024\nsamples = 249\nvalue = [246, 3]"] ;
568 -> 569 ;
570 [label="X[131] <= 291145.469\ngini = 0.054\nsamples = 36\nvalue = [35, 1]"] ;
569 -> 570 ;
571 [label="gini = 0.0\nsamples = 35\nvalue = [35, 0]"] ;
570 -> 571 ;
572 [label="gini = 0.0\nsamples = 1\nvalue = [0, 1]"] ;
570 -> 572 ;
573 [label="X[131] <= 345942.844\ngini = 0.019\nsamples = 213\nvalue = [211, 2]"] ;
569 -> 573 ;
574 [label="gini = 0.0\nsamples = 83\nvalue = [83, 0]"] ;
573 -> 574 ;
575 [label="X[131] <= 346287.375\ngini = 0.03\nsamples = 130\nvalue = [128, 2]"] ;
573 -> 575 ;
576 [label="gini = 0.0\nsamples = 1\nvalue = [0, 1]"] ;
575 -> 576 ;
577 [label="X[131] <= 428998.438\ngini = 0.015\nsamples = 129\nvalue = [128, 1]"] ;
575 -> 577 ;
578 [label="gini = 0.0\nsamples = 75\nvalue = [75, 0]"] ;
577 -> 578 ;
579 [label="X[131] <= 431160.219\ngini = 0.036\nsamples = 54\nvalue = [53, 1]"] ;
577 -> 579 ;
580 [label="gini = 0.0\nsamples = 1\nvalue = [0, 1]"] ;
579 -> 580 ;
581 [label="gini = 0.0\nsamples = 53\nvalue = [53, 0]"] ;
579 -> 581 ;
582 [label="gini = 0.0\nsamples = 140\nvalue = [140, 0]"] ;
568 -> 582 ;
583 [label="X[131] <= 184255.344\ngini = 0.055\nsamples = 71\nvalue = [69, 2]"] ;
525 -> 583 ;
584 [label="gini = 0.0\nsamples = 44\nvalue = [44, 0]"] ;
583 -> 584 ;
585 [label="X[131] <= 193828.75\ngini = 0.137\nsamples = 27\nvalue = [25, 2]"] ;
583 -> 585 ;
586 [label="gini = 0.0\nsamples = 1\nvalue = [0, 1]"] ;
585 -> 586 ;
587 [label="X[131] <= 281722.938\ngini = 0.074\nsamples = 26\nvalue = [25, 1]"] ;
585 -> 587 ;
588 [label="gini = 0.0\nsamples = 17\nvalue = [17, 0]"] ;
587 -> 588 ;
589 [label="X[131] <= 287725.469\ngini = 0.198\nsamples = 9\nvalue = [8, 1]"] ;
587 -> 589 ;
590 [label="gini = 0.0\nsamples = 1\nvalue = [0, 1]"] ;
589 -> 590 ;
591 [label="gini = 0.0\nsamples = 8\nvalue = [8, 0]"] ;
589 -> 591 ;
592 [label="X[107] <= 7.5\ngini = 0.1\nsamples = 19\nvalue = [18, 1]"] ;
524 -> 592 ;
593 [label="X[131] <= 200913.047\ngini = 0.278\nsamples = 6\nvalue = [5, 1]"] ;
592 -> 593 ;
594 [label="X[131] <= 153439.062\ngini = 0.5\nsamples = 2\nvalue = [1, 1]"] ;
593 -> 594 ;
595 [label="gini = 0.0\nsamples = 1\nvalue = [1, 0]"] ;
594 -> 595 ;
596 [label="gini = 0.0\nsamples = 1\nvalue = [0, 1]"] ;
594 -> 596 ;
597 [label="gini = 0.0\nsamples = 4\nvalue = [4, 0]"] ;
593 -> 597 ;
598 [label="gini = 0.0\nsamples = 13\nvalue = [13, 0]"] ;
592 -> 598 ;
599 [label="X[131] <= 636306.125\ngini = 0.075\nsamples = 77\nvalue = [74, 3]"] ;
523 -> 599 ;
600 [label="gini = 0.0\nsamples = 1\nvalue = [0, 1]"] ;
599 -> 600 ;
601 [label="X[131] <= 645863.375\ngini = 0.051\nsamples = 76\nvalue = [74, 2]"] ;
599 -> 601 ;
602 [label="X[131] <= 641390.812\ngini = 0.375\nsamples = 4\nvalue = [3, 1]"] ;
601 -> 602 ;
603 [label="gini = 0.0\nsamples = 3\nvalue = [3, 0]"] ;
602 -> 603 ;
604 [label="gini = 0.0\nsamples = 1\nvalue = [0, 1]"] ;
602 -> 604 ;
605 [label="X[131] <= 1887146.0\ngini = 0.027\nsamples = 72\nvalue = [71, 1]"] ;
601 -> 605 ;
606 [label="gini = 0.0\nsamples = 60\nvalue = [60, 0]"] ;
605 -> 606 ;
607 [label="X[131] <= 2036400.75\ngini = 0.153\nsamples = 12\nvalue = [11, 1]"] ;
605 -> 607 ;
608 [label="gini = 0.0\nsamples = 1\nvalue = [0, 1]"] ;
607 -> 608 ;
609 [label="gini = 0.0\nsamples = 11\nvalue = [11, 0]"] ;
607 -> 609 ;
610 [label="X[11] <= 0.5\ngini = 0.071\nsamples = 1277\nvalue = [1230, 47]"] ;
186 -> 610 ;
611 [label="X[131] <= 62974.156\ngini = 0.375\nsamples = 12\nvalue = [9, 3]"] ;
610 -> 611 ;
612 [label="X[1] <= 26.5\ngini = 0.444\nsamples = 3\nvalue = [1, 2]"] ;
611 -> 612 ;
613 [label="gini = 0.0\nsamples = 1\nvalue = [1, 0]"] ;
612 -> 613 ;
614 [label="gini = 0.0\nsamples = 2\nvalue = [0, 2]"] ;
612 -> 614 ;
615 [label="X[131] <= 248576.031\ngini = 0.198\nsamples = 9\nvalue = [8, 1]"] ;
611 -> 615 ;
616 [label="gini = 0.0\nsamples = 7\nvalue = [7, 0]"] ;
615 -> 616 ;
617 [label="X[15] <= 0.5\ngini = 0.5\nsamples = 2\nvalue = [1, 1]"] ;
615 -> 617 ;
618 [label="gini = 0.0\nsamples = 1\nvalue = [0, 1]"] ;
617 -> 618 ;
619 [label="gini = 0.0\nsamples = 1\nvalue = [1, 0]"] ;
617 -> 619 ;
620 [label="X[131] <= 146856.719\ngini = 0.067\nsamples = 1265\nvalue = [1221, 44]"] ;
610 -> 620 ;
621 [label="X[131] <= 146788.266\ngini = 0.08\nsamples = 883\nvalue = [846, 37]"] ;
620 -> 621 ;
622 [label="X[118] <= 0.015\ngini = 0.078\nsamples = 882\nvalue = [846, 36]"] ;
621 -> 622 ;
623 [label="X[119] <= 33.03\ngini = 0.087\nsamples = 770\nvalue = [735, 35]"] ;
622 -> 623 ;
624 [label="X[131] <= 64845.703\ngini = 0.085\nsamples = 768\nvalue = [734, 34]"] ;
623 -> 624 ;
625 [label="X[131] <= 55950.555\ngini = 0.035\nsamples = 113\nvalue = [111, 2]"] ;
624 -> 625 ;
626 [label="X[131] <= 55861.516\ngini = 0.081\nsamples = 47\nvalue = [45, 2]"] ;
625 -> 626 ;
627 [label="X[131] <= 52083.492\ngini = 0.043\nsamples = 46\nvalue = [45, 1]"] ;
626 -> 627 ;
628 [label="gini = 0.0\nsamples = 26\nvalue = [26, 0]"] ;
627 -> 628 ;
629 [label="X[131] <= 52125.898\ngini = 0.095\nsamples = 20\nvalue = [19, 1]"] ;
627 -> 629 ;
630 [label="gini = 0.0\nsamples = 1\nvalue = [0, 1]"] ;
629 -> 630 ;
631 [label="gini = 0.0\nsamples = 19\nvalue = [19, 0]"] ;
629 -> 631 ;
632 [label="gini = 0.0\nsamples = 1\nvalue = [0, 1]"] ;
626 -> 632 ;
633 [label="gini = 0.0\nsamples = 66\nvalue = [66, 0]"] ;
625 -> 633 ;
634 [label="X[131] <= 64962.105\ngini = 0.093\nsamples = 655\nvalue = [623, 32]"] ;
624 -> 634 ;
635 [label="gini = 0.0\nsamples = 1\nvalue = [0, 1]"] ;
634 -> 635 ;
636 [label="X[131] <= 69582.844\ngini = 0.09\nsamples = 654\nvalue = [623, 31]"] ;
634 -> 636 ;
637 [label="X[131] <= 69355.828\ngini = 0.18\nsamples = 40\nvalue = [36, 4]"] ;
636 -> 637 ;
638 [label="X[105] <= 1.5\ngini = 0.142\nsamples = 39\nvalue = [36, 3]"] ;
637 -> 638 ;
639 [label="X[131] <= 69012.609\ngini = 0.105\nsamples = 36\nvalue = [34, 2]"] ;
638 -> 639 ;
640 [label="X[131] <= 66080.266\ngini = 0.059\nsamples = 33\nvalue = [32, 1]"] ;
639 -> 640 ;
641 [label="X[131] <= 66033.859\ngini = 0.142\nsamples = 13\nvalue = [12, 1]"] ;
640 -> 641 ;
642 [label="gini = 0.0\nsamples = 12\nvalue = [12, 0]"] ;
641 -> 642 ;
643 [label="gini = 0.0\nsamples = 1\nvalue = [0, 1]"] ;
641 -> 643 ;
644 [label="gini = 0.0\nsamples = 20\nvalue = [20, 0]"] ;
640 -> 644 ;
645 [label="X[131] <= 69149.312\ngini = 0.444\nsamples = 3\nvalue = [2, 1]"] ;
639 -> 645 ;
646 [label="gini = 0.0\nsamples = 1\nvalue = [0, 1]"] ;
645 -> 646 ;
647 [label="gini = 0.0\nsamples = 2\nvalue = [2, 0]"] ;
645 -> 647 ;
648 [label="X[131] <= 68177.297\ngini = 0.444\nsamples = 3\nvalue = [2, 1]"] ;
638 -> 648 ;
649 [label="gini = 0.0\nsamples = 1\nvalue = [1, 0]"] ;
648 -> 649 ;
650 [label="X[32] <= 0.5\ngini = 0.5\nsamples = 2\nvalue = [1, 1]"] ;
648 -> 650 ;
651 [label="gini = 0.0\nsamples = 1\nvalue = [1, 0]"] ;
650 -> 651 ;
652 [label="gini = 0.0\nsamples = 1\nvalue = [0, 1]"] ;
650 -> 652 ;
653 [label="gini = 0.0\nsamples = 1\nvalue = [0, 1]"] ;
637 -> 653 ;
654 [label="X[117] <= 7.5\ngini = 0.084\nsamples = 614\nvalue = [587, 27]"] ;
636 -> 654 ;
655 [label="X[131] <= 76404.219\ngini = 0.082\nsamples = 609\nvalue = [583, 26]"] ;
654 -> 655 ;
656 [label="gini = 0.0\nsamples = 55\nvalue = [55, 0]"] ;
655 -> 656 ;
657 [label="X[131] <= 76520.094\ngini = 0.089\nsamples = 554\nvalue = [528, 26]"] ;
655 -> 657 ;
658 [label="gini = 0.0\nsamples = 1\nvalue = [0, 1]"] ;
657 -> 658 ;
659 [label="X[1] <= 26.5\ngini = 0.086\nsamples = 553\nvalue = [528, 25]"] ;
657 -> 659 ;
660 [label="X[131] <= 116421.844\ngini = 0.058\nsamples = 266\nvalue = [258, 8]"] ;
659 -> 660 ;
661 [label="X[131] <= 115808.719\ngini = 0.1\nsamples = 132\nvalue = [125, 7]"] ;
660 -> 661 ;
662 [label="X[131] <= 82923.586\ngini = 0.087\nsamples = 131\nvalue = [125, 6]"] ;
661 -> 662 ;
663 [label="gini = 0.0\nsamples = 25\nvalue = [25, 0]"] ;
662 -> 663 ;
664 [label="X[131] <= 83148.516\ngini = 0.107\nsamples = 106\nvalue = [100, 6]"] ;
662 -> 664 ;
665 [label="gini = 0.0\nsamples = 1\nvalue = [0, 1]"] ;
664 -> 665 ;
666 [label="X[131] <= 83896.453\ngini = 0.091\nsamples = 105\nvalue = [100, 5]"] ;
664 -> 666 ;
667 [label="X[131] <= 83366.805\ngini = 0.444\nsamples = 3\nvalue = [2, 1]"] ;
666 -> 667 ;
668 [label="gini = 0.0\nsamples = 2\nvalue = [2, 0]"] ;
667 -> 668 ;
669 [label="gini = 0.0\nsamples = 1\nvalue = [0, 1]"] ;
667 -> 669 ;
670 [label="X[32] <= 0.5\ngini = 0.075\nsamples = 102\nvalue = [98, 4]"] ;
666 -> 670 ;
671 [label="X[131] <= 104021.039\ngini = 0.208\nsamples = 17\nvalue = [15, 2]"] ;
670 -> 671 ;
672 [label="gini = 0.0\nsamples = 9\nvalue = [9, 0]"] ;
671 -> 672 ;
673 [label="X[131] <= 108110.938\ngini = 0.375\nsamples = 8\nvalue = [6, 2]"] ;
671 -> 673 ;
674 [label="X[131] <= 105783.555\ngini = 0.444\nsamples = 3\nvalue = [1, 2]"] ;
673 -> 674 ;
675 [label="gini = 0.0\nsamples = 1\nvalue = [0, 1]"] ;
674 -> 675 ;
676 [label="X[131] <= 106946.82\ngini = 0.5\nsamples = 2\nvalue = [1, 1]"] ;
674 -> 676 ;
677 [label="gini = 0.0\nsamples = 1\nvalue = [1, 0]"] ;
676 -> 677 ;
678 [label="gini = 0.0\nsamples = 1\nvalue = [0, 1]"] ;
676 -> 678 ;
679 [label="gini = 0.0\nsamples = 5\nvalue = [5, 0]"] ;
673 -> 679 ;
680 [label="X[131] <= 98231.82\ngini = 0.046\nsamples = 85\nvalue = [83, 2]"] ;
670 -> 680 ;
681 [label="X[131] <= 97528.656\ngini = 0.085\nsamples = 45\nvalue = [43, 2]"] ;
680 -> 681 ;
682 [label="X[131] <= 90865.32\ngini = 0.044\nsamples = 44\nvalue = [43, 1]"] ;
681 -> 682 ;
683 [label="gini = 0.0\nsamples = 22\nvalue = [22, 0]"] ;
682 -> 683 ;
684 [label="X[131] <= 90884.75\ngini = 0.087\nsamples = 22\nvalue = [21, 1]"] ;
682 -> 684 ;
685 [label="gini = 0.0\nsamples = 1\nvalue = [0, 1]"] ;
684 -> 685 ;
686 [label="gini = 0.0\nsamples = 21\nvalue = [21, 0]"] ;
684 -> 686 ;
687 [label="gini = 0.0\nsamples = 1\nvalue = [0, 1]"] ;
681 -> 687 ;
688 [label="gini = 0.0\nsamples = 40\nvalue = [40, 0]"] ;
680 -> 688 ;
689 [label="gini = 0.0\nsamples = 1\nvalue = [0, 1]"] ;
661 -> 689 ;
690 [label="X[131] <= 117488.43\ngini = 0.015\nsamples = 134\nvalue = [133, 1]"] ;
660 -> 690 ;
691 [label="X[32] <= 0.5\ngini = 0.027\nsamples = 73\nvalue = [72, 1]"] ;
690 -> 691 ;
692 [label="gini = 0.0\nsamples = 15\nvalue = [15, 0]"] ;
691 -> 692 ;
693 [label="X[117] <= 1.5\ngini = 0.034\nsamples = 58\nvalue = [57, 1]"] ;
691 -> 693 ;
694 [label="X[107] <= 1.5\ngini = 0.036\nsamples = 54\nvalue = [53, 1]"] ;
693 -> 694 ;
695 [label="X[43] <= 4.5\ngini = 0.038\nsamples = 51\nvalue = [50, 1]"] ;
694 -> 695 ;
696 [label="X[108] <= 1.5\ngini = 0.039\nsamples = 50\nvalue = [49, 1]"] ;
695 -> 696 ;
697 [label="gini = 0.04\nsamples = 49\nvalue = [48, 1]"] ;
696 -> 697 ;
698 [label="gini = 0.0\nsamples = 1\nvalue = [1, 0]"] ;
696 -> 698 ;
699 [label="gini = 0.0\nsamples = 1\nvalue = [1, 0]"] ;
695 -> 699 ;
700 [label="gini = 0.0\nsamples = 3\nvalue = [3, 0]"] ;
694 -> 700 ;
701 [label="gini = 0.0\nsamples = 4\nvalue = [4, 0]"] ;
693 -> 701 ;
702 [label="gini = 0.0\nsamples = 61\nvalue = [61, 0]"] ;
690 -> 702 ;
703 [label="X[131] <= 139659.0\ngini = 0.111\nsamples = 287\nvalue = [270, 17]"] ;
659 -> 703 ;
704 [label="X[131] <= 132286.656\ngini = 0.104\nsamples = 273\nvalue = [258, 15]"] ;
703 -> 704 ;
705 [label="X[131] <= 132209.859\ngini = 0.112\nsamples = 251\nvalue = [236, 15]"] ;
704 -> 705 ;
706 [label="X[131] <= 125822.531\ngini = 0.106\nsamples = 250\nvalue = [236, 14]"] ;
705 -> 706 ;
707 [label="X[117] <= 4.5\ngini = 0.097\nsamples = 235\nvalue = [223, 12]"] ;
706 -> 707 ;
708 [label="X[131] <= 92541.484\ngini = 0.091\nsamples = 229\nvalue = [218, 11]"] ;
707 -> 708 ;
709 [label="X[131] <= 92380.844\ngini = 0.15\nsamples = 49\nvalue = [45, 4]"] ;
708 -> 709 ;
710 [label="X[131] <= 91226.055\ngini = 0.117\nsamples = 48\nvalue = [45, 3]"] ;
709 -> 710 ;
711 [label="X[131] <= 85321.375\ngini = 0.089\nsamples = 43\nvalue = [41, 2]"] ;
710 -> 711 ;
712 [label="X[131] <= 84796.141\ngini = 0.147\nsamples = 25\nvalue = [23, 2]"] ;
711 -> 712 ;
713 [label="X[131] <= 79298.281\ngini = 0.08\nsamples = 24\nvalue = [23, 1]"] ;
712 -> 713 ;
714 [label="X[131] <= 78896.836\ngini = 0.219\nsamples = 8\nvalue = [7, 1]"] ;
713 -> 714 ;
715 [label="gini = 0.0\nsamples = 7\nvalue = [7, 0]"] ;
714 -> 715 ;
716 [label="gini = 0.0\nsamples = 1\nvalue = [0, 1]"] ;
714 -> 716 ;
717 [label="gini = 0.0\nsamples = 16\nvalue = [16, 0]"] ;
713 -> 717 ;
718 [label="gini = 0.0\nsamples = 1\nvalue = [0, 1]"] ;
712 -> 718 ;
719 [label="gini = 0.0\nsamples = 18\nvalue = [18, 0]"] ;
711 -> 719 ;
720 [label="X[131] <= 91351.922\ngini = 0.32\nsamples = 5\nvalue = [4, 1]"] ;
710 -> 720 ;
721 [label="gini = 0.0\nsamples = 1\nvalue = [0, 1]"] ;
720 -> 721 ;
722 [label="gini = 0.0\nsamples = 4\nvalue = [4, 0]"] ;
720 -> 722 ;
723 [label="gini = 0.0\nsamples = 1\nvalue = [0, 1]"] ;
709 -> 723 ;
724 [label="X[131] <= 117218.156\ngini = 0.075\nsamples = 180\nvalue = [173, 7]"] ;
708 -> 724 ;
725 [label="X[131] <= 103542.156\ngini = 0.027\nsamples = 74\nvalue = [73, 1]"] ;
724 -> 725 ;
726 [label="X[131] <= 103278.531\ngini = 0.056\nsamples = 35\nvalue = [34, 1]"] ;
725 -> 726 ;
727 [label="gini = 0.0\nsamples = 34\nvalue = [34, 0]"] ;
726 -> 727 ;
728 [label="gini = 0.0\nsamples = 1\nvalue = [0, 1]"] ;
726 -> 728 ;
729 [label="gini = 0.0\nsamples = 39\nvalue = [39, 0]"] ;
725 -> 729 ;
730 [label="X[131] <= 117349.203\ngini = 0.107\nsamples = 106\nvalue = [100, 6]"] ;
724 -> 730 ;
731 [label="X[117] <= 1.5\ngini = 0.128\nsamples = 87\nvalue = [81, 6]"] ;
730 -> 731 ;
732 [label="X[32] <= 0.5\ngini = 0.142\nsamples = 78\nvalue = [72, 6]"] ;
731 -> 732 ;
733 [label="gini = 0.087\nsamples = 22\nvalue = [21, 1]"] ;
732 -> 733 ;
734 [label="X[107] <= 1.5\ngini = 0.163\nsamples = 56\nvalue = [51, 5]"] ;
732 -> 734 ;
735 [label="X[34] <= 0.5\ngini = 0.174\nsamples = 52\nvalue = [47, 5]"] ;
734 -> 735 ;
736 [label="X[43] <= 4.5\ngini = 0.177\nsamples = 51\nvalue = [46, 5]"] ;
735 -> 736 ;
737 [label="X[0] <= -499998.5\ngini = 0.18\nsamples = 50\nvalue = [45, 5]"] ;
736 -> 737 ;
738 [label="gini = 0.0\nsamples = 1\nvalue = [1, 0]"] ;
737 -> 738 ;
739 [label="gini = 0.183\nsamples = 49\nvalue = [44, 5]"] ;
737 -> 739 ;
740 [label="gini = 0.0\nsamples = 1\nvalue = [1, 0]"] ;
736 -> 740 ;
741 [label="gini = 0.0\nsamples = 1\nvalue = [1, 0]"] ;
735 -> 741 ;
742 [label="gini = 0.0\nsamples = 4\nvalue = [4, 0]"] ;
734 -> 742 ;
743 [label="gini = 0.0\nsamples = 9\nvalue = [9, 0]"] ;
731 -> 743 ;
744 [label="gini = 0.0\nsamples = 19\nvalue = [19, 0]"] ;
730 -> 744 ;
745 [label="X[131] <= 110830.062\ngini = 0.278\nsamples = 6\nvalue = [5, 1]"] ;
707 -> 745 ;
746 [label="gini = 0.0\nsamples = 4\nvalue = [4, 0]"] ;
745 -> 746 ;
747 [label="X[105] <= 1.5\ngini = 0.5\nsamples = 2\nvalue = [1, 1]"] ;
745 -> 747 ;
748 [label="gini = 0.0\nsamples = 1\nvalue = [1, 0]"] ;
747 -> 748 ;
749 [label="gini = 0.0\nsamples = 1\nvalue = [0, 1]"] ;
747 -> 749 ;
750 [label="X[117] <= 1.5\ngini = 0.231\nsamples = 15\nvalue = [13, 2]"] ;
706 -> 750 ;
751 [label="X[131] <= 128449.188\ngini = 0.133\nsamples = 14\nvalue = [13, 1]"] ;
750 -> 751 ;
752 [label="gini = 0.0\nsamples = 6\nvalue = [6, 0]"] ;
751 -> 752 ;
753 [label="X[131] <= 129323.672\ngini = 0.219\nsamples = 8\nvalue = [7, 1]"] ;
751 -> 753 ;
754 [label="gini = 0.5\nsamples = 2\nvalue = [1, 1]"] ;
753 -> 754 ;
755 [label="gini = 0.0\nsamples = 6\nvalue = [6, 0]"] ;
753 -> 755 ;
756 [label="gini = 0.0\nsamples = 1\nvalue = [0, 1]"] ;
750 -> 756 ;
757 [label="gini = 0.0\nsamples = 1\nvalue = [0, 1]"] ;
705 -> 757 ;
758 [label="gini = 0.0\nsamples = 22\nvalue = [22, 0]"] ;
704 -> 758 ;
759 [label="X[131] <= 140081.25\ngini = 0.245\nsamples = 14\nvalue = [12, 2]"] ;
703 -> 759 ;
760 [label="gini = 0.0\nsamples = 1\nvalue = [0, 1]"] ;
759 -> 760 ;
761 [label="X[131] <= 140578.734\ngini = 0.142\nsamples = 13\nvalue = [12, 1]"] ;
759 -> 761 ;
762 [label="X[131] <= 140535.156\ngini = 0.444\nsamples = 3\nvalue = [2, 1]"] ;
761 -> 762 ;
763 [label="gini = 0.0\nsamples = 2\nvalue = [2, 0]"] ;
762 -> 763 ;
764 [label="gini = 0.0\nsamples = 1\nvalue = [0, 1]"] ;
762 -> 764 ;
765 [label="gini = 0.0\nsamples = 10\nvalue = [10, 0]"] ;
761 -> 765 ;
766 [label="X[117] <= 10.5\ngini = 0.32\nsamples = 5\nvalue = [4, 1]"] ;
654 -> 766 ;
767 [label="X[1] <= 26.5\ngini = 0.5\nsamples = 2\nvalue = [1, 1]"] ;
766 -> 767 ;
768 [label="gini = 0.0\nsamples = 1\nvalue = [0, 1]"] ;
767 -> 768 ;
769 [label="gini = 0.0\nsamples = 1\nvalue = [1, 0]"] ;
767 -> 769 ;
770 [label="gini = 0.0\nsamples = 3\nvalue = [3, 0]"] ;
766 -> 770 ;
771 [label="X[119] <= 38.37\ngini = 0.5\nsamples = 2\nvalue = [1, 1]"] ;
623 -> 771 ;
772 [label="gini = 0.0\nsamples = 1\nvalue = [0, 1]"] ;
771 -> 772 ;
773 [label="gini = 0.0\nsamples = 1\nvalue = [1, 0]"] ;
771 -> 773 ;
774 [label="X[55] <= 1.725\ngini = 0.018\nsamples = 112\nvalue = [111, 1]"] ;
622 -> 774 ;
775 [label="gini = 0.0\nsamples = 104\nvalue = [104, 0]"] ;
774 -> 775 ;
776 [label="X[131] <= 63965.461\ngini = 0.219\nsamples = 8\nvalue = [7, 1]"] ;
774 -> 776 ;
777 [label="gini = 0.0\nsamples = 1\nvalue = [0, 1]"] ;
776 -> 777 ;
778 [label="gini = 0.0\nsamples = 7\nvalue = [7, 0]"] ;
776 -> 778 ;
779 [label="gini = 0.0\nsamples = 1\nvalue = [0, 1]"] ;
621 -> 779 ;
780 [label="X[105] <= 4.5\ngini = 0.036\nsamples = 382\nvalue = [375, 7]"] ;
620 -> 780 ;
781 [label="X[1] <= 26.5\ngini = 0.031\nsamples = 376\nvalue = [370, 6]"] ;
780 -> 781 ;
782 [label="X[131] <= 222080.641\ngini = 0.009\nsamples = 223\nvalue = [222, 1]"] ;
781 -> 782 ;
783 [label="gini = 0.0\nsamples = 120\nvalue = [120, 0]"] ;
782 -> 783 ;
784 [label="X[131] <= 222842.531\ngini = 0.019\nsamples = 103\nvalue = [102, 1]"] ;
782 -> 784 ;
785 [label="gini = 0.0\nsamples = 1\nvalue = [0, 1]"] ;
784 -> 785 ;
786 [label="gini = 0.0\nsamples = 102\nvalue = [102, 0]"] ;
784 -> 786 ;
787 [label="X[59] <= 2.5\ngini = 0.063\nsamples = 153\nvalue = [148, 5]"] ;
781 -> 787 ;
788 [label="X[118] <= 20.925\ngini = 0.278\nsamples = 6\nvalue = [5, 1]"] ;
787 -> 788 ;
789 [label="gini = 0.0\nsamples = 1\nvalue = [0, 1]"] ;
788 -> 789 ;
790 [label="gini = 0.0\nsamples = 5\nvalue = [5, 0]"] ;
788 -> 790 ;
791 [label="X[131] <= 164181.375\ngini = 0.053\nsamples = 147\nvalue = [143, 4]"] ;
787 -> 791 ;
792 [label="gini = 0.0\nsamples = 32\nvalue = [32, 0]"] ;
791 -> 792 ;
793 [label="X[131] <= 165501.422\ngini = 0.067\nsamples = 115\nvalue = [111, 4]"] ;
791 -> 793 ;
794 [label="gini = 0.0\nsamples = 1\nvalue = [0, 1]"] ;
793 -> 794 ;
795 [label="X[131] <= 313740.844\ngini = 0.051\nsamples = 114\nvalue = [111, 3]"] ;
793 -> 795 ;
796 [label="X[131] <= 309234.5\ngini = 0.067\nsamples = 87\nvalue = [84, 3]"] ;
795 -> 796 ;
797 [label="X[131] <= 183063.359\ngini = 0.045\nsamples = 86\nvalue = [84, 2]"] ;
796 -> 797 ;
798 [label="X[131] <= 182674.844\ngini = 0.095\nsamples = 20\nvalue = [19, 1]"] ;
797 -> 798 ;
799 [label="gini = 0.0\nsamples = 19\nvalue = [19, 0]"] ;
798 -> 799 ;
800 [label="gini = 0.0\nsamples = 1\nvalue = [0, 1]"] ;
798 -> 800 ;
801 [label="X[131] <= 249265.25\ngini = 0.03\nsamples = 66\nvalue = [65, 1]"] ;
797 -> 801 ;
802 [label="gini = 0.0\nsamples = 46\nvalue = [46, 0]"] ;
801 -> 802 ;
803 [label="X[131] <= 251857.625\ngini = 0.095\nsamples = 20\nvalue = [19, 1]"] ;
801 -> 803 ;
804 [label="gini = 0.0\nsamples = 1\nvalue = [0, 1]"] ;
803 -> 804 ;
805 [label="gini = 0.0\nsamples = 19\nvalue = [19, 0]"] ;
803 -> 805 ;
806 [label="gini = 0.0\nsamples = 1\nvalue = [0, 1]"] ;
796 -> 806 ;
807 [label="gini = 0.0\nsamples = 27\nvalue = [27, 0]"] ;
795 -> 807 ;
808 [label="X[106] <= 1.5\ngini = 0.278\nsamples = 6\nvalue = [5, 1]"] ;
780 -> 808 ;
809 [label="gini = 0.0\nsamples = 4\nvalue = [4, 0]"] ;
808 -> 809 ;
810 [label="X[12] <= 0.5\ngini = 0.5\nsamples = 2\nvalue = [1, 1]"] ;
808 -> 810 ;
811 [label="gini = 0.0\nsamples = 1\nvalue = [0, 1]"] ;
810 -> 811 ;
812 [label="gini = 0.0\nsamples = 1\nvalue = [1, 0]"] ;
810 -> 812 ;
813 [label="gini = 0.0\nsamples = 1\nvalue = [0, 1]"] ;
185 -> 813 ;
814 [label="gini = 0.0\nsamples = 1\nvalue = [0, 1]"] ;
184 -> 814 ;
815 [label="X[131] <= 117339.641\ngini = 0.266\nsamples = 8114\nvalue = [6831, 1283]"] ;
1 -> 815 ;
816 [label="X[131] <= 85490.297\ngini = 0.298\nsamples = 6167\nvalue = [5044, 1123]"] ;
815 -> 816 ;
817 [label="X[119] <= 0.435\ngini = 0.331\nsamples = 3223\nvalue = [2548, 675]"] ;
816 -> 817 ;
818 [label="X[7] <= 480.0\ngini = 0.343\nsamples = 2956\nvalue = [2306, 650]"] ;
817 -> 818 ;
819 [label="X[0] <= 2.5\ngini = 0.341\nsamples = 2940\nvalue = [2300, 640]"] ;
818 -> 819 ;
820 [label="X[1] <= 66.5\ngini = 0.346\nsamples = 2871\nvalue = [2233, 638]"] ;
819 -> 820 ;
821 [label="X[1] <= 50.5\ngini = 0.351\nsamples = 2751\nvalue = [2126, 625]"] ;
820 -> 821 ;
822 [label="X[118] <= 53.94\ngini = 0.34\nsamples = 2361\nvalue = [1849, 512]"] ;
821 -> 822 ;
823 [label="X[57] <= 258.69\ngini = 0.342\nsamples = 2335\nvalue = [1823, 512]"] ;
822 -> 823 ;
824 [label="X[131] <= 30471.945\ngini = 0.341\nsamples = 2332\nvalue = [1823, 509]"] ;
823 -> 824 ;
825 [label="X[131] <= 25678.23\ngini = 0.43\nsamples = 147\nvalue = [101, 46]"] ;
824 -> 825 ;
826 [label="X[11] <= 0.5\ngini = 0.353\nsamples = 83\nvalue = [64, 19]"] ;
825 -> 826 ;
827 [label="gini = 0.0\nsamples = 2\nvalue = [0, 2]"] ;
826 -> 827 ;
828 [label="X[1] <= 42.5\ngini = 0.332\nsamples = 81\nvalue = [64, 17]"] ;
826 -> 828 ;
829 [label="X[117] <= 1.5\ngini = 0.375\nsamples = 68\nvalue = [51, 17]"] ;
828 -> 829 ;
830 [label="X[131] <= 22621.379\ngini = 0.337\nsamples = 56\nvalue = [44, 12]"] ;
829 -> 830 ;
831 [label="X[1] <= 33.5\ngini = 0.225\nsamples = 31\nvalue = [27, 4]"] ;
830 -> 831 ;
832 [label="gini = 0.0\nsamples = 9\nvalue = [9, 0]"] ;
831 -> 832 ;
833 [label="X[131] <= 20830.141\ngini = 0.298\nsamples = 22\nvalue = [18, 4]"] ;
831 -> 833 ;
834 [label="X[131] <= 20667.615\ngini = 0.408\nsamples = 14\nvalue = [10, 4]"] ;
833 -> 834 ;
835 [label="X[1] <= 39.5\ngini = 0.355\nsamples = 13\nvalue = [10, 3]"] ;
834 -> 835 ;
836 [label="X[131] <= 11299.53\ngini = 0.444\nsamples = 9\nvalue = [6, 3]"] ;
835 -> 836 ;
837 [label="gini = 0.0\nsamples = 2\nvalue = [2, 0]"] ;
836 -> 837 ;
838 [label="X[131] <= 19795.336\ngini = 0.49\nsamples = 7\nvalue = [4, 3]"] ;
836 -> 838 ;
839 [label="X[131] <= 17310.93\ngini = 0.48\nsamples = 5\nvalue = [2, 3]"] ;
838 -> 839 ;
840 [label="X[131] <= 13583.266\ngini = 0.444\nsamples = 3\nvalue = [2, 1]"] ;
839 -> 840 ;
841 [label="gini = 0.0\nsamples = 1\nvalue = [0, 1]"] ;
840 -> 841 ;
842 [label="gini = 0.0\nsamples = 2\nvalue = [2, 0]"] ;
840 -> 842 ;
843 [label="gini = 0.0\nsamples = 2\nvalue = [0, 2]"] ;
839 -> 843 ;
844 [label="gini = 0.0\nsamples = 2\nvalue = [2, 0]"] ;
838 -> 844 ;
845 [label="gini = 0.0\nsamples = 4\nvalue = [4, 0]"] ;
835 -> 845 ;
846 [label="gini = 0.0\nsamples = 1\nvalue = [0, 1]"] ;
834 -> 846 ;
847 [label="gini = 0.0\nsamples = 8\nvalue = [8, 0]"] ;
833 -> 847 ;
848 [label="X[131] <= 22906.83\ngini = 0.435\nsamples = 25\nvalue = [17, 8]"] ;
830 -> 848 ;
849 [label="gini = 0.0\nsamples = 3\nvalue = [0, 3]"] ;
848 -> 849 ;
850 [label="X[1] <= 28.5\ngini = 0.351\nsamples = 22\nvalue = [17, 5]"] ;
848 -> 850 ;
851 [label="gini = 0.0\nsamples = 1\nvalue = [0, 1]"] ;
850 -> 851 ;
852 [label="X[32] <= 0.5\ngini = 0.308\nsamples = 21\nvalue = [17, 4]"] ;
850 -> 852 ;
853 [label="gini = 0.0\nsamples = 7\nvalue = [7, 0]"] ;
852 -> 853 ;
854 [label="X[105] <= 1.5\ngini = 0.408\nsamples = 14\nvalue = [10, 4]"] ;
852 -> 854 ;
855 [label="X[131] <= 23541.045\ngini = 0.355\nsamples = 13\nvalue = [10, 3]"] ;
854 -> 855 ;
856 [label="gini = 0.0\nsamples = 3\nvalue = [3, 0]"] ;
855 -> 856 ;
857 [label="X[131] <= 24382.545\ngini = 0.42\nsamples = 10\nvalue = [7, 3]"] ;
855 -> 857 ;
858 [label="X[1] <= 35.5\ngini = 0.444\nsamples = 3\nvalue = [1, 2]"] ;
857 -> 858 ;
859 [label="gini = 0.0\nsamples = 1\nvalue = [1, 0]"] ;
858 -> 859 ;
860 [label="gini = 0.0\nsamples = 2\nvalue = [0, 2]"] ;
858 -> 860 ;
861 [label="X[1] <= 32.0\ngini = 0.245\nsamples = 7\nvalue = [6, 1]"] ;
857 -> 861 ;
862 [label="X[1] <= 29.5\ngini = 0.5\nsamples = 2\nvalue = [1, 1]"] ;
861 -> 862 ;
863 [label="gini = 0.0\nsamples = 1\nvalue = [1, 0]"] ;
862 -> 863 ;
864 [label="gini = 0.0\nsamples = 1\nvalue = [0, 1]"] ;
862 -> 864 ;
865 [label="gini = 0.0\nsamples = 5\nvalue = [5, 0]"] ;
861 -> 865 ;
866 [label="gini = 0.0\nsamples = 1\nvalue = [0, 1]"] ;
854 -> 866 ;
867 [label="X[1] <= 37.5\ngini = 0.486\nsamples = 12\nvalue = [7, 5]"] ;
829 -> 867 ;
868 [label="X[131] <= 12523.5\ngini = 0.278\nsamples = 6\nvalue = [5, 1]"] ;
867 -> 868 ;
869 [label="gini = 0.0\nsamples = 1\nvalue = [0, 1]"] ;
868 -> 869 ;
870 [label="gini = 0.0\nsamples = 5\nvalue = [5, 0]"] ;
868 -> 870 ;
871 [label="X[107] <= 1.5\ngini = 0.444\nsamples = 6\nvalue = [2, 4]"] ;
867 -> 871 ;
872 [label="gini = 0.0\nsamples = 4\nvalue = [0, 4]"] ;
871 -> 872 ;
873 [label="gini = 0.0\nsamples = 2\nvalue = [2, 0]"] ;
871 -> 873 ;
874 [label="gini = 0.0\nsamples = 13\nvalue = [13, 0]"] ;
828 -> 874 ;
875 [label="X[131] <= 26684.551\ngini = 0.488\nsamples = 64\nvalue = [37, 27]"] ;
825 -> 875 ;
876 [label="X[131] <= 26144.955\ngini = 0.42\nsamples = 10\nvalue = [3, 7]"] ;
875 -> 876 ;
877 [label="X[131] <= 25889.58\ngini = 0.48\nsamples = 5\nvalue = [3, 2]"] ;
876 -> 877 ;
878 [label="gini = 0.0\nsamples = 2\nvalue = [0, 2]"] ;
877 -> 878 ;
879 [label="gini = 0.0\nsamples = 3\nvalue = [3, 0]"] ;
877 -> 879 ;
880 [label="gini = 0.0\nsamples = 5\nvalue = [0, 5]"] ;
876 -> 880 ;
881 [label="X[1] <= 44.5\ngini = 0.466\nsamples = 54\nvalue = [34, 20]"] ;
875 -> 881 ;
882 [label="X[131] <= 29474.129\ngini = 0.491\nsamples = 46\nvalue = [26, 20]"] ;
881 -> 882 ;
883 [label="X[1] <= 39.5\ngini = 0.444\nsamples = 33\nvalue = [22, 11]"] ;
882 -> 883 ;
884 [label="X[131] <= 28293.719\ngini = 0.375\nsamples = 24\nvalue = [18, 6]"] ;
883 -> 884 ;
885 [label="X[131] <= 27920.879\ngini = 0.457\nsamples = 17\nvalue = [11, 6]"] ;
884 -> 885 ;
886 [label="X[1] <= 30.5\ngini = 0.391\nsamples = 15\nvalue = [11, 4]"] ;
885 -> 886 ;
887 [label="X[131] <= 27403.469\ngini = 0.444\nsamples = 3\nvalue = [1, 2]"] ;
886 -> 887 ;
888 [label="gini = 0.0\nsamples = 1\nvalue = [1, 0]"] ;
887 -> 888 ;
889 [label="gini = 0.0\nsamples = 2\nvalue = [0, 2]"] ;
887 -> 889 ;
890 [label="X[131] <= 26892.09\ngini = 0.278\nsamples = 12\nvalue = [10, 2]"] ;
886 -> 890 ;
891 [label="gini = 0.0\nsamples = 1\nvalue = [0, 1]"] ;
890 -> 891 ;
892 [label="X[1] <= 36.5\ngini = 0.165\nsamples = 11\nvalue = [10, 1]"] ;
890 -> 892 ;
893 [label="gini = 0.0\nsamples = 9\nvalue = [9, 0]"] ;
892 -> 893 ;
894 [label="X[107] <= 1.5\ngini = 0.5\nsamples = 2\nvalue = [1, 1]"] ;
892 -> 894 ;
895 [label="gini = 0.0\nsamples = 1\nvalue = [0, 1]"] ;
894 -> 895 ;
896 [label="gini = 0.0\nsamples = 1\nvalue = [1, 0]"] ;
894 -> 896 ;
897 [label="gini = 0.0\nsamples = 2\nvalue = [0, 2]"] ;
885 -> 897 ;
898 [label="gini = 0.0\nsamples = 7\nvalue = [7, 0]"] ;
884 -> 898 ;
899 [label="X[131] <= 29160.676\ngini = 0.494\nsamples = 9\nvalue = [4, 5]"] ;
883 -> 899 ;
900 [label="X[1] <= 42.5\ngini = 0.408\nsamples = 7\nvalue = [2, 5]"] ;
899 -> 900 ;
901 [label="gini = 0.0\nsamples = 4\nvalue = [0, 4]"] ;
900 -> 901 ;
902 [label="X[131] <= 27703.484\ngini = 0.444\nsamples = 3\nvalue = [2, 1]"] ;
900 -> 902 ;
903 [label="gini = 0.0\nsamples = 1\nvalue = [0, 1]"] ;
902 -> 903 ;
904 [label="gini = 0.0\nsamples = 2\nvalue = [2, 0]"] ;
902 -> 904 ;
905 [label="gini = 0.0\nsamples = 2\nvalue = [2, 0]"] ;
899 -> 905 ;
906 [label="X[32] <= 0.5\ngini = 0.426\nsamples = 13\nvalue = [4, 9]"] ;
882 -> 906 ;
907 [label="X[1] <= 37.0\ngini = 0.48\nsamples = 5\nvalue = [3, 2]"] ;
906 -> 907 ;
908 [label="gini = 0.0\nsamples = 2\nvalue = [2, 0]"] ;
907 -> 908 ;
909 [label="X[1] <= 40.0\ngini = 0.444\nsamples = 3\nvalue = [1, 2]"] ;
907 -> 909 ;
910 [label="gini = 0.0\nsamples = 2\nvalue = [0, 2]"] ;
909 -> 910 ;
911 [label="gini = 0.0\nsamples = 1\nvalue = [1, 0]"] ;
909 -> 911 ;
912 [label="X[131] <= 30119.504\ngini = 0.219\nsamples = 8\nvalue = [1, 7]"] ;
906 -> 912 ;
913 [label="gini = 0.0\nsamples = 6\nvalue = [0, 6]"] ;
912 -> 913 ;
914 [label="X[117] <= 1.5\ngini = 0.5\nsamples = 2\nvalue = [1, 1]"] ;
912 -> 914 ;
915 [label="gini = 0.0\nsamples = 1\nvalue = [1, 0]"] ;
914 -> 915 ;
916 [label="gini = 0.0\nsamples = 1\nvalue = [0, 1]"] ;
914 -> 916 ;
917 [label="gini = 0.0\nsamples = 8\nvalue = [8, 0]"] ;
881 -> 917 ;
918 [label="X[104] <= 4.5\ngini = 0.334\nsamples = 2185\nvalue = [1722, 463]"] ;
824 -> 918 ;
919 [label="X[1] <= 31.5\ngini = 0.331\nsamples = 2143\nvalue = [1695, 448]"] ;
918 -> 919 ;
920 [label="X[118] <= 26.535\ngini = 0.294\nsamples = 536\nvalue = [440, 96]"] ;
919 -> 920 ;
921 [label="X[131] <= 30882.24\ngini = 0.29\nsamples = 534\nvalue = [440, 94]"] ;
920 -> 921 ;
922 [label="gini = 0.0\nsamples = 1\nvalue = [0, 1]"] ;
921 -> 922 ;
923 [label="X[105] <= 1.5\ngini = 0.288\nsamples = 533\nvalue = [440, 93]"] ;
921 -> 923 ;
924 [label="X[131] <= 40803.465\ngini = 0.28\nsamples = 510\nvalue = [424, 86]"] ;
923 -> 924 ;
925 [label="X[131] <= 38096.039\ngini = 0.16\nsamples = 57\nvalue = [52, 5]"] ;
924 -> 925 ;
926 [label="X[131] <= 37892.039\ngini = 0.224\nsamples = 39\nvalue = [34, 5]"] ;
925 -> 926 ;
927 [label="X[131] <= 35331.93\ngini = 0.188\nsamples = 38\nvalue = [34, 4]"] ;
926 -> 927 ;
928 [label="X[1] <= 29.5\ngini = 0.095\nsamples = 20\nvalue = [19, 1]"] ;
927 -> 928 ;
929 [label="gini = 0.0\nsamples = 12\nvalue = [12, 0]"] ;
928 -> 929 ;
930 [label="X[131] <= 32436.766\ngini = 0.219\nsamples = 8\nvalue = [7, 1]"] ;
928 -> 930 ;
931 [label="X[131] <= 31936.154\ngini = 0.5\nsamples = 2\nvalue = [1, 1]"] ;
930 -> 931 ;
932 [label="gini = 0.0\nsamples = 1\nvalue = [1, 0]"] ;
931 -> 932 ;
933 [label="gini = 0.0\nsamples = 1\nvalue = [0, 1]"] ;
931 -> 933 ;
934 [label="gini = 0.0\nsamples = 6\nvalue = [6, 0]"] ;
930 -> 934 ;
935 [label="X[131] <= 35361.914\ngini = 0.278\nsamples = 18\nvalue = [15, 3]"] ;
927 -> 935 ;
936 [label="gini = 0.0\nsamples = 1\nvalue = [0, 1]"] ;
935 -> 936 ;
937 [label="X[131] <= 36416.25\ngini = 0.208\nsamples = 17\nvalue = [15, 2]"] ;
935 -> 937 ;
938 [label="X[131] <= 36143.547\ngini = 0.346\nsamples = 9\nvalue = [7, 2]"] ;
937 -> 938 ;
939 [label="X[117] <= 1.5\ngini = 0.219\nsamples = 8\nvalue = [7, 1]"] ;
938 -> 939 ;
940 [label="gini = 0.0\nsamples = 5\nvalue = [5, 0]"] ;
939 -> 940 ;
941 [label="X[1] <= 30.5\ngini = 0.444\nsamples = 3\nvalue = [2, 1]"] ;
939 -> 941 ;
942 [label="gini = 0.0\nsamples = 2\nvalue = [2, 0]"] ;
941 -> 942 ;
943 [label="gini = 0.0\nsamples = 1\nvalue = [0, 1]"] ;
941 -> 943 ;
944 [label="gini = 0.0\nsamples = 1\nvalue = [0, 1]"] ;
938 -> 944 ;
945 [label="gini = 0.0\nsamples = 8\nvalue = [8, 0]"] ;
937 -> 945 ;
946 [label="gini = 0.0\nsamples = 1\nvalue = [0, 1]"] ;
926 -> 946 ;
947 [label="gini = 0.0\nsamples = 18\nvalue = [18, 0]"] ;
925 -> 947 ;
948 [label="X[131] <= 40924.602\ngini = 0.294\nsamples = 453\nvalue = [372, 81]"] ;
924 -> 948 ;
949 [label="gini = 0.0\nsamples = 1\nvalue = [0, 1]"] ;
948 -> 949 ;
950 [label="X[117] <= 1.5\ngini = 0.291\nsamples = 452\nvalue = [372, 80]"] ;
948 -> 950 ;
951 [label="X[131] <= 83218.156\ngini = 0.275\nsamples = 388\nvalue = [324, 64]"] ;
950 -> 951 ;
952 [label="X[131] <= 83182.32\ngini = 0.281\nsamples = 378\nvalue = [314, 64]"] ;
951 -> 952 ;
953 [label="X[131] <= 71458.766\ngini = 0.278\nsamples = 377\nvalue = [314, 63]"] ;
952 -> 953 ;
954 [label="X[131] <= 61407.75\ngini = 0.257\nsamples = 277\nvalue = [235, 42]"] ;
953 -> 954 ;
955 [label="X[131] <= 59820.27\ngini = 0.299\nsamples = 186\nvalue = [152, 34]"] ;
954 -> 955 ;
956 [label="X[1] <= 28.5\ngini = 0.27\nsamples = 168\nvalue = [141, 27]"] ;
955 -> 956 ;
957 [label="X[57] <= 5.445\ngini = 0.375\nsamples = 44\nvalue = [33, 11]"] ;
956 -> 957 ;
958 [label="X[131] <= 57319.695\ngini = 0.357\nsamples = 43\nvalue = [33, 10]"] ;
957 -> 958 ;
959 [label="X[131] <= 57148.574\ngini = 0.388\nsamples = 38\nvalue = [28, 10]"] ;
958 -> 959 ;
960 [label="X[131] <= 49360.41\ngini = 0.368\nsamples = 37\nvalue = [28, 9]"] ;
959 -> 960 ;
961 [label="X[131] <= 43083.062\ngini = 0.219\nsamples = 16\nvalue = [14, 2]"] ;
960 -> 961 ;
962 [label="X[131] <= 41760.164\ngini = 0.48\nsamples = 5\nvalue = [3, 2]"] ;
961 -> 962 ;
963 [label="gini = 0.0\nsamples = 2\nvalue = [2, 0]"] ;
962 -> 963 ;
964 [label="X[131] <= 41840.609\ngini = 0.444\nsamples = 3\nvalue = [1, 2]"] ;
962 -> 964 ;
965 [label="gini = 0.0\nsamples = 1\nvalue = [0, 1]"] ;
964 -> 965 ;
966 [label="X[131] <= 42279.688\ngini = 0.5\nsamples = 2\nvalue = [1, 1]"] ;
964 -> 966 ;
967 [label="gini = 0.0\nsamples = 1\nvalue = [1, 0]"] ;
966 -> 967 ;
968 [label="gini = 0.0\nsamples = 1\nvalue = [0, 1]"] ;
966 -> 968 ;
969 [label="gini = 0.0\nsamples = 11\nvalue = [11, 0]"] ;
961 -> 969 ;
970 [label="X[131] <= 55970.91\ngini = 0.444\nsamples = 21\nvalue = [14, 7]"] ;
960 -> 970 ;
971 [label="X[131] <= 54255.148\ngini = 0.492\nsamples = 16\nvalue = [9, 7]"] ;
970 -> 971 ;
972 [label="X[32] <= 0.5\ngini = 0.459\nsamples = 14\nvalue = [9, 5]"] ;
971 -> 972 ;
973 [label="gini = 0.0\nsamples = 3\nvalue = [3, 0]"] ;
972 -> 973 ;
974 [label="X[131] <= 50163.133\ngini = 0.496\nsamples = 11\nvalue = [6, 5]"] ;
972 -> 974 ;
975 [label="gini = 0.0\nsamples = 1\nvalue = [0, 1]"] ;
974 -> 975 ;
976 [label="X[131] <= 50843.367\ngini = 0.48\nsamples = 10\nvalue = [6, 4]"] ;
974 -> 976 ;
977 [label="gini = 0.0\nsamples = 1\nvalue = [1, 0]"] ;
976 -> 977 ;
978 [label="X[131] <= 51358.109\ngini = 0.494\nsamples = 9\nvalue = [5, 4]"] ;
976 -> 978 ;
979 [label="gini = 0.0\nsamples = 1\nvalue = [0, 1]"] ;
978 -> 979 ;
980 [label="X[131] <= 51615.809\ngini = 0.469\nsamples = 8\nvalue = [5, 3]"] ;
978 -> 980 ;
981 [label="gini = 0.0\nsamples = 1\nvalue = [1, 0]"] ;
980 -> 981 ;
982 [label="X[131] <= 51746.594\ngini = 0.49\nsamples = 7\nvalue = [4, 3]"] ;
980 -> 982 ;
983 [label="gini = 0.0\nsamples = 1\nvalue = [0, 1]"] ;
982 -> 983 ;
984 [label="X[131] <= 52411.242\ngini = 0.444\nsamples = 6\nvalue = [4, 2]"] ;
982 -> 984 ;
985 [label="gini = 0.0\nsamples = 2\nvalue = [2, 0]"] ;
984 -> 985 ;
986 [label="X[131] <= 53287.859\ngini = 0.5\nsamples = 4\nvalue = [2, 2]"] ;
984 -> 986 ;
987 [label="gini = 0.0\nsamples = 1\nvalue = [0, 1]"] ;
986 -> 987 ;
988 [label="X[131] <= 53675.73\ngini = 0.444\nsamples = 3\nvalue = [2, 1]"] ;
986 -> 988 ;
989 [label="gini = 0.0\nsamples = 1\nvalue = [1, 0]"] ;
988 -> 989 ;
990 [label="X[131] <= 53954.941\ngini = 0.5\nsamples = 2\nvalue = [1, 1]"] ;
988 -> 990 ;
991 [label="gini = 0.0\nsamples = 1\nvalue = [0, 1]"] ;
990 -> 991 ;
992 [label="gini = 0.0\nsamples = 1\nvalue = [1, 0]"] ;
990 -> 992 ;
993 [label="gini = 0.0\nsamples = 2\nvalue = [0, 2]"] ;
971 -> 993 ;
994 [label="gini = 0.0\nsamples = 5\nvalue = [5, 0]"] ;
970 -> 994 ;
995 [label="gini = 0.0\nsamples = 1\nvalue = [0, 1]"] ;
959 -> 995 ;
996 [label="gini = 0.0\nsamples = 5\nvalue = [5, 0]"] ;
958 -> 996 ;
997 [label="gini = 0.0\nsamples = 1\nvalue = [0, 1]"] ;
957 -> 997 ;
998 [label="X[131] <= 46306.258\ngini = 0.225\nsamples = 124\nvalue = [108, 16]"] ;
956 -> 998 ;
999 [label="X[131] <= 46241.625\ngini = 0.355\nsamples = 39\nvalue = [30, 9]"] ;
998 -> 999 ;
1000 [label="X[131] <= 42513.328\ngini = 0.332\nsamples = 38\nvalue = [30, 8]"] ;
999 -> 1000 ;
1001 [label="gini = 0.0\nsamples = 8\nvalue = [8, 0]"] ;
1000 -> 1001 ;
1002 [label="X[131] <= 42707.688\ngini = 0.391\nsamples = 30\nvalue = [22, 8]"] ;
1000 -> 1002 ;
1003 [label="gini = 0.0\nsamples = 1\nvalue = [0, 1]"] ;
1002 -> 1003 ;
1004 [label="X[131] <= 43248.359\ngini = 0.366\nsamples = 29\nvalue = [22, 7]"] ;
1002 -> 1004 ;
1005 [label="gini = 0.0\nsamples = 5\nvalue = [5, 0]"] ;
1004 -> 1005 ;
1006 [label="X[131] <= 43302.0\ngini = 0.413\nsamples = 24\nvalue = [17, 7]"] ;
1004 -> 1006 ;
1007 [label="gini = 0.0\nsamples = 1\nvalue = [0, 1]"] ;
1006 -> 1007 ;
1008 [label="X[131] <= 45855.09\ngini = 0.386\nsamples = 23\nvalue = [17, 6]"] ;
1006 -> 1008 ;
1009 [label="X[131] <= 45510.57\ngini = 0.42\nsamples = 20\nvalue = [14, 6]"] ;
1008 -> 1009 ;
1010 [label="X[131] <= 44969.625\ngini = 0.346\nsamples = 18\nvalue = [14, 4]"] ;
1009 -> 1010 ;
1011 [label="X[131] <= 44943.18\ngini = 0.408\nsamples = 14\nvalue = [10, 4]"] ;
1010 -> 1011 ;
1012 [label="X[1] <= 30.5\ngini = 0.355\nsamples = 13\nvalue = [10, 3]"] ;
1011 -> 1012 ;
1013 [label="X[131] <= 44713.77\ngini = 0.444\nsamples = 9\nvalue = [6, 3]"] ;
1012 -> 1013 ;
1014 [label="X[131] <= 44607.867\ngini = 0.49\nsamples = 7\nvalue = [4, 3]"] ;
1013 -> 1014 ;
1015 [label="X[32] <= 0.5\ngini = 0.444\nsamples = 6\nvalue = [4, 2]"] ;
1014 -> 1015 ;
1016 [label="gini = 0.0\nsamples = 2\nvalue = [2, 0]"] ;
1015 -> 1016 ;
1017 [label="X[131] <= 43344.93\ngini = 0.5\nsamples = 4\nvalue = [2, 2]"] ;
1015 -> 1017 ;
1018 [label="gini = 0.0\nsamples = 1\nvalue = [1, 0]"] ;
1017 -> 1018 ;
1019 [label="X[131] <= 43625.145\ngini = 0.444\nsamples = 3\nvalue = [1, 2]"] ;
1017 -> 1019 ;
1020 [label="gini = 0.0\nsamples = 1\nvalue = [0, 1]"] ;
1019 -> 1020 ;
1021 [label="X[1] <= 29.5\ngini = 0.5\nsamples = 2\nvalue = [1, 1]"] ;
1019 -> 1021 ;
1022 [label="gini = 0.0\nsamples = 1\nvalue = [1, 0]"] ;
1021 -> 1022 ;
1023 [label="gini = 0.0\nsamples = 1\nvalue = [0, 1]"] ;
1021 -> 1023 ;
1024 [label="gini = 0.0\nsamples = 1\nvalue = [0, 1]"] ;
1014 -> 1024 ;
1025 [label="gini = 0.0\nsamples = 2\nvalue = [2, 0]"] ;
1013 -> 1025 ;
1026 [label="gini = 0.0\nsamples = 4\nvalue = [4, 0]"] ;
1012 -> 1026 ;
1027 [label="gini = 0.0\nsamples = 1\nvalue = [0, 1]"] ;
1011 -> 1027 ;
1028 [label="gini = 0.0\nsamples = 4\nvalue = [4, 0]"] ;
1010 -> 1028 ;
1029 [label="gini = 0.0\nsamples = 2\nvalue = [0, 2]"] ;
1009 -> 1029 ;
1030 [label="gini = 0.0\nsamples = 3\nvalue = [3, 0]"] ;
1008 -> 1030 ;
1031 [label="gini = 0.0\nsamples = 1\nvalue = [0, 1]"] ;
999 -> 1031 ;
1032 [label="X[131] <= 52822.336\ngini = 0.151\nsamples = 85\nvalue = [78, 7]"] ;
998 -> 1032 ;
1033 [label="X[131] <= 52601.594\ngini = 0.21\nsamples = 42\nvalue = [37, 5]"] ;
1032 -> 1033 ;
1034 [label="X[1] <= 29.5\ngini = 0.176\nsamples = 41\nvalue = [37, 4]"] ;
1033 -> 1034 ;
1035 [label="gini = 0.0\nsamples = 14\nvalue = [14, 0]"] ;
1034 -> 1035 ;
1036 [label="X[131] <= 49386.133\ngini = 0.252\nsamples = 27\nvalue = [23, 4]"] ;
1034 -> 1036 ;
1037 [label="X[131] <= 47314.184\ngini = 0.124\nsamples = 15\nvalue = [14, 1]"] ;
1036 -> 1037 ;
1038 [label="X[131] <= 47145.359\ngini = 0.32\nsamples = 5\nvalue = [4, 1]"] ;
1037 -> 1038 ;
1039 [label="gini = 0.0\nsamples = 4\nvalue = [4, 0]"] ;
1038 -> 1039 ;
1040 [label="gini = 0.0\nsamples = 1\nvalue = [0, 1]"] ;
1038 -> 1040 ;
1041 [label="gini = 0.0\nsamples = 10\nvalue = [10, 0]"] ;
1037 -> 1041 ;
1042 [label="X[131] <= 49452.344\ngini = 0.375\nsamples = 12\nvalue = [9, 3]"] ;
1036 -> 1042 ;
1043 [label="gini = 0.0\nsamples = 1\nvalue = [0, 1]"] ;
1042 -> 1043 ;
1044 [label="X[131] <= 50745.824\ngini = 0.298\nsamples = 11\nvalue = [9, 2]"] ;
1042 -> 1044 ;
1045 [label="X[131] <= 50492.297\ngini = 0.408\nsamples = 7\nvalue = [5, 2]"] ;
1044 -> 1045 ;
1046 [label="X[131] <= 49987.484\ngini = 0.278\nsamples = 6\nvalue = [5, 1]"] ;
1045 -> 1046 ;
1047 [label="X[1] <= 30.5\ngini = 0.444\nsamples = 3\nvalue = [2, 1]"] ;
1046 -> 1047 ;
1048 [label="gini = 0.0\nsamples = 1\nvalue = [0, 1]"] ;
1047 -> 1048 ;
1049 [label="gini = 0.0\nsamples = 2\nvalue = [2, 0]"] ;
1047 -> 1049 ;
1050 [label="gini = 0.0\nsamples = 3\nvalue = [3, 0]"] ;
1046 -> 1050 ;
1051 [label="gini = 0.0\nsamples = 1\nvalue = [0, 1]"] ;
1045 -> 1051 ;
1052 [label="gini = 0.0\nsamples = 4\nvalue = [4, 0]"] ;
1044 -> 1052 ;
1053 [label="gini = 0.0\nsamples = 1\nvalue = [0, 1]"] ;
1033 -> 1053 ;
1054 [label="X[32] <= 0.5\ngini = 0.089\nsamples = 43\nvalue = [41, 2]"] ;
1032 -> 1054 ;
1055 [label="X[131] <= 57877.992\ngini = 0.278\nsamples = 6\nvalue = [5, 1]"] ;
1054 -> 1055 ;
1056 [label="gini = 0.0\nsamples = 5\nvalue = [5, 0]"] ;
1055 -> 1056 ;
1057 [label="gini = 0.0\nsamples = 1\nvalue = [0, 1]"] ;
1055 -> 1057 ;
1058 [label="X[1] <= 29.5\ngini = 0.053\nsamples = 37\nvalue = [36, 1]"] ;
1054 -> 1058 ;
1059 [label="X[131] <= 56008.422\ngini = 0.142\nsamples = 13\nvalue = [12, 1]"] ;
1058 -> 1059 ;
1060 [label="gini = 0.0\nsamples = 6\nvalue = [6, 0]"] ;
1059 -> 1060 ;
1061 [label="X[131] <= 56465.625\ngini = 0.245\nsamples = 7\nvalue = [6, 1]"] ;
1059 -> 1061 ;
1062 [label="gini = 0.0\nsamples = 1\nvalue = [0, 1]"] ;
1061 -> 1062 ;
1063 [label="gini = 0.0\nsamples = 6\nvalue = [6, 0]"] ;
1061 -> 1063 ;
1064 [label="gini = 0.0\nsamples = 24\nvalue = [24, 0]"] ;
1058 -> 1064 ;
1065 [label="X[1] <= 29.5\ngini = 0.475\nsamples = 18\nvalue = [11, 7]"] ;
955 -> 1065 ;
1066 [label="X[1] <= 28.5\ngini = 0.408\nsamples = 14\nvalue = [10, 4]"] ;
1065 -> 1066 ;
1067 [label="X[131] <= 60412.383\ngini = 0.5\nsamples = 8\nvalue = [4, 4]"] ;
1066 -> 1067 ;
1068 [label="gini = 0.0\nsamples = 2\nvalue = [0, 2]"] ;
1067 -> 1068 ;
1069 [label="X[131] <= 60984.016\ngini = 0.444\nsamples = 6\nvalue = [4, 2]"] ;
1067 -> 1069 ;
1070 [label="gini = 0.0\nsamples = 4\nvalue = [4, 0]"] ;
1069 -> 1070 ;
1071 [label="gini = 0.0\nsamples = 2\nvalue = [0, 2]"] ;
1069 -> 1071 ;
1072 [label="gini = 0.0\nsamples = 6\nvalue = [6, 0]"] ;
1066 -> 1072 ;
1073 [label="X[131] <= 61018.5\ngini = 0.375\nsamples = 4\nvalue = [1, 3]"] ;
1065 -> 1073 ;
1074 [label="gini = 0.0\nsamples = 3\nvalue = [0, 3]"] ;
1073 -> 1074 ;
1075 [label="gini = 0.0\nsamples = 1\nvalue = [1, 0]"] ;
1073 -> 1075 ;
1076 [label="X[1] <= 30.5\ngini = 0.16\nsamples = 91\nvalue = [83, 8]"] ;
954 -> 1076 ;
1077 [label="X[131] <= 65430.18\ngini = 0.186\nsamples = 77\nvalue = [69, 8]"] ;
1076 -> 1077 ;
1078 [label="X[131] <= 65026.754\ngini = 0.264\nsamples = 32\nvalue = [27, 5]"] ;
1077 -> 1078 ;
1079 [label="X[131] <= 62651.699\ngini = 0.225\nsamples = 31\nvalue = [27, 4]"] ;
1078 -> 1079 ;
1080 [label="gini = 0.0\nsamples = 9\nvalue = [9, 0]"] ;
1079 -> 1080 ;
1081 [label="X[131] <= 62739.883\ngini = 0.298\nsamples = 22\nvalue = [18, 4]"] ;
1079 -> 1081 ;
1082 [label="gini = 0.0\nsamples = 1\nvalue = [0, 1]"] ;
1081 -> 1082 ;
1083 [label="X[131] <= 63061.32\ngini = 0.245\nsamples = 21\nvalue = [18, 3]"] ;
1081 -> 1083 ;
1084 [label="X[131] <= 62964.047\ngini = 0.444\nsamples = 3\nvalue = [2, 1]"] ;
1083 -> 1084 ;
1085 [label="gini = 0.0\nsamples = 2\nvalue = [2, 0]"] ;
1084 -> 1085 ;
1086 [label="gini = 0.0\nsamples = 1\nvalue = [0, 1]"] ;
1084 -> 1086 ;
1087 [label="X[1] <= 28.5\ngini = 0.198\nsamples = 18\nvalue = [16, 2]"] ;
1083 -> 1087 ;
1088 [label="gini = 0.0\nsamples = 9\nvalue = [9, 0]"] ;
1087 -> 1088 ;
1089 [label="X[131] <= 63617.746\ngini = 0.346\nsamples = 9\nvalue = [7, 2]"] ;
1087 -> 1089 ;
1090 [label="gini = 0.0\nsamples = 4\nvalue = [4, 0]"] ;
1089 -> 1090 ;
1091 [label="X[131] <= 64592.102\ngini = 0.48\nsamples = 5\nvalue = [3, 2]"] ;
1089 -> 1091 ;
1092 [label="X[131] <= 64063.953\ngini = 0.444\nsamples = 3\nvalue = [1, 2]"] ;
1091 -> 1092 ;
1093 [label="gini = 0.0\nsamples = 1\nvalue = [0, 1]"] ;
1092 -> 1093 ;
1094 [label="X[131] <= 64440.453\ngini = 0.5\nsamples = 2\nvalue = [1, 1]"] ;
1092 -> 1094 ;
1095 [label="gini = 0.0\nsamples = 1\nvalue = [1, 0]"] ;
1094 -> 1095 ;
1096 [label="gini = 0.0\nsamples = 1\nvalue = [0, 1]"] ;
1094 -> 1096 ;
1097 [label="gini = 0.0\nsamples = 2\nvalue = [2, 0]"] ;
1091 -> 1097 ;
1098 [label="gini = 0.0\nsamples = 1\nvalue = [0, 1]"] ;
1078 -> 1098 ;
1099 [label="X[131] <= 67753.047\ngini = 0.124\nsamples = 45\nvalue = [42, 3]"] ;
1077 -> 1099 ;
1100 [label="gini = 0.0\nsamples = 16\nvalue = [16, 0]"] ;
1099 -> 1100 ;
1101 [label="X[131] <= 67865.023\ngini = 0.185\nsamples = 29\nvalue = [26, 3]"] ;
1099 -> 1101 ;
1102 [label="gini = 0.0\nsamples = 1\nvalue = [0, 1]"] ;
1101 -> 1102 ;
1103 [label="X[32] <= 0.5\ngini = 0.133\nsamples = 28\nvalue = [26, 2]"] ;
1101 -> 1103 ;
1104 [label="X[131] <= 70304.984\ngini = 0.375\nsamples = 4\nvalue = [3, 1]"] ;
1103 -> 1104 ;
1105 [label="gini = 0.0\nsamples = 3\nvalue = [3, 0]"] ;
1104 -> 1105 ;
1106 [label="gini = 0.0\nsamples = 1\nvalue = [0, 1]"] ;
1104 -> 1106 ;
1107 [label="X[131] <= 68648.75\ngini = 0.08\nsamples = 24\nvalue = [23, 1]"] ;
1103 -> 1107 ;
1108 [label="X[131] <= 68568.57\ngini = 0.278\nsamples = 6\nvalue = [5, 1]"] ;
1107 -> 1108 ;
1109 [label="gini = 0.0\nsamples = 5\nvalue = [5, 0]"] ;
1108 -> 1109 ;
1110 [label="gini = 0.0\nsamples = 1\nvalue = [0, 1]"] ;
1108 -> 1110 ;
1111 [label="gini = 0.0\nsamples = 18\nvalue = [18, 0]"] ;
1107 -> 1111 ;
1112 [label="gini = 0.0\nsamples = 14\nvalue = [14, 0]"] ;
1076 -> 1112 ;
1113 [label="X[131] <= 71776.266\ngini = 0.332\nsamples = 100\nvalue = [79, 21]"] ;
953 -> 1113 ;
1114 [label="X[1] <= 29.5\ngini = 0.444\nsamples = 3\nvalue = [1, 2]"] ;
1113 -> 1114 ;
1115 [label="X[131] <= 71532.961\ngini = 0.5\nsamples = 2\nvalue = [1, 1]"] ;
1114 -> 1115 ;
1116 [label="gini = 0.0\nsamples = 1\nvalue = [0, 1]"] ;
1115 -> 1116 ;
1117 [label="gini = 0.0\nsamples = 1\nvalue = [1, 0]"] ;
1115 -> 1117 ;
1118 [label="gini = 0.0\nsamples = 1\nvalue = [0, 1]"] ;
1114 -> 1118 ;
1119 [label="X[107] <= 1.5\ngini = 0.315\nsamples = 97\nvalue = [78, 19]"] ;
1113 -> 1119 ;
1120 [label="X[55] <= 1.05\ngini = 0.296\nsamples = 94\nvalue = [77, 17]"] ;
1119 -> 1120 ;
1121 [label="X[131] <= 82063.594\ngini = 0.285\nsamples = 93\nvalue = [77, 16]"] ;
1120 -> 1121 ;
1122 [label="X[131] <= 81806.281\ngini = 0.317\nsamples = 81\nvalue = [65, 16]"] ;
1121 -> 1122 ;
1123 [label="X[1] <= 29.5\ngini = 0.292\nsamples = 79\nvalue = [65, 14]"] ;
1122 -> 1123 ;
1124 [label="X[131] <= 73372.5\ngini = 0.348\nsamples = 49\nvalue = [38, 11]"] ;
1123 -> 1124 ;
1125 [label="X[131] <= 72446.461\ngini = 0.48\nsamples = 10\nvalue = [6, 4]"] ;
1124 -> 1125 ;
1126 [label="gini = 0.0\nsamples = 3\nvalue = [3, 0]"] ;
1125 -> 1126 ;
1127 [label="X[131] <= 72867.312\ngini = 0.49\nsamples = 7\nvalue = [3, 4]"] ;
1125 -> 1127 ;
1128 [label="X[131] <= 72633.25\ngini = 0.375\nsamples = 4\nvalue = [1, 3]"] ;
1127 -> 1128 ;
1129 [label="X[131] <= 72536.836\ngini = 0.5\nsamples = 2\nvalue = [1, 1]"] ;
1128 -> 1129 ;
1130 [label="gini = 0.0\nsamples = 1\nvalue = [0, 1]"] ;
1129 -> 1130 ;
1131 [label="gini = 0.0\nsamples = 1\nvalue = [1, 0]"] ;
1129 -> 1131 ;
1132 [label="gini = 0.0\nsamples = 2\nvalue = [0, 2]"] ;
1128 -> 1132 ;
1133 [label="X[131] <= 73279.664\ngini = 0.444\nsamples = 3\nvalue = [2, 1]"] ;
1127 -> 1133 ;
1134 [label="gini = 0.0\nsamples = 2\nvalue = [2, 0]"] ;
1133 -> 1134 ;
1135 [label="gini = 0.0\nsamples = 1\nvalue = [0, 1]"] ;
1133 -> 1135 ;
1136 [label="X[131] <= 74794.172\ngini = 0.295\nsamples = 39\nvalue = [32, 7]"] ;
1124 -> 1136 ;
1137 [label="gini = 0.0\nsamples = 8\nvalue = [8, 0]"] ;
1136 -> 1137 ;
1138 [label="X[131] <= 74982.328\ngini = 0.35\nsamples = 31\nvalue = [24, 7]"] ;
1136 -> 1138 ;
1139 [label="gini = 0.0\nsamples = 1\nvalue = [0, 1]"] ;
1138 -> 1139 ;
1140 [label="X[131] <= 75766.891\ngini = 0.32\nsamples = 30\nvalue = [24, 6]"] ;
1138 -> 1140 ;
1141 [label="gini = 0.0\nsamples = 5\nvalue = [5, 0]"] ;
1140 -> 1141 ;
1142 [label="X[131] <= 75932.562\ngini = 0.365\nsamples = 25\nvalue = [19, 6]"] ;
1140 -> 1142 ;
1143 [label="gini = 0.0\nsamples = 1\nvalue = [0, 1]"] ;
1142 -> 1143 ;
1144 [label="X[131] <= 76865.898\ngini = 0.33\nsamples = 24\nvalue = [19, 5]"] ;
1142 -> 1144 ;
1145 [label="gini = 0.0\nsamples = 5\nvalue = [5, 0]"] ;
1144 -> 1145 ;
1146 [label="X[131] <= 77117.25\ngini = 0.388\nsamples = 19\nvalue = [14, 5]"] ;
1144 -> 1146 ;
1147 [label="gini = 0.0\nsamples = 1\nvalue = [0, 1]"] ;
1146 -> 1147 ;
1148 [label="X[1] <= 28.5\ngini = 0.346\nsamples = 18\nvalue = [14, 4]"] ;
1146 -> 1148 ;
1149 [label="X[131] <= 78293.531\ngini = 0.444\nsamples = 12\nvalue = [8, 4]"] ;
1148 -> 1149 ;
1150 [label="X[131] <= 77444.789\ngini = 0.5\nsamples = 4\nvalue = [2, 2]"] ;
1149 -> 1150 ;
1151 [label="gini = 0.0\nsamples = 1\nvalue = [1, 0]"] ;
1150 -> 1151 ;
1152 [label="X[131] <= 77657.414\ngini = 0.444\nsamples = 3\nvalue = [1, 2]"] ;
1150 -> 1152 ;
1153 [label="gini = 0.0\nsamples = 1\nvalue = [0, 1]"] ;
1152 -> 1153 ;
1154 [label="X[131] <= 77857.547\ngini = 0.5\nsamples = 2\nvalue = [1, 1]"] ;
1152 -> 1154 ;
1155 [label="gini = 0.0\nsamples = 1\nvalue = [1, 0]"] ;
1154 -> 1155 ;
1156 [label="gini = 0.0\nsamples = 1\nvalue = [0, 1]"] ;
1154 -> 1156 ;
1157 [label="X[131] <= 79676.477\ngini = 0.375\nsamples = 8\nvalue = [6, 2]"] ;
1149 -> 1157 ;
1158 [label="gini = 0.0\nsamples = 2\nvalue = [2, 0]"] ;
1157 -> 1158 ;
1159 [label="X[131] <= 80054.836\ngini = 0.444\nsamples = 6\nvalue = [4, 2]"] ;
1157 -> 1159 ;
1160 [label="gini = 0.0\nsamples = 1\nvalue = [0, 1]"] ;
1159 -> 1160 ;
1161 [label="X[131] <= 80490.242\ngini = 0.32\nsamples = 5\nvalue = [4, 1]"] ;
1159 -> 1161 ;
1162 [label="gini = 0.0\nsamples = 3\nvalue = [3, 0]"] ;
1161 -> 1162 ;
1163 [label="X[131] <= 81075.562\ngini = 0.5\nsamples = 2\nvalue = [1, 1]"] ;
1161 -> 1163 ;
1164 [label="gini = 0.0\nsamples = 1\nvalue = [0, 1]"] ;
1163 -> 1164 ;
1165 [label="gini = 0.0\nsamples = 1\nvalue = [1, 0]"] ;
1163 -> 1165 ;
1166 [label="gini = 0.0\nsamples = 6\nvalue = [6, 0]"] ;
1148 -> 1166 ;
1167 [label="X[131] <= 81009.375\ngini = 0.18\nsamples = 30\nvalue = [27, 3]"] ;
1123 -> 1167 ;
1168 [label="X[131] <= 72502.188\ngini = 0.08\nsamples = 24\nvalue = [23, 1]"] ;
1167 -> 1168 ;
1169 [label="X[32] <= 0.5\ngini = 0.5\nsamples = 2\nvalue = [1, 1]"] ;
1168 -> 1169 ;
1170 [label="gini = 0.0\nsamples = 1\nvalue = [1, 0]"] ;
1169 -> 1170 ;
1171 [label="gini = 0.0\nsamples = 1\nvalue = [0, 1]"] ;
1169 -> 1171 ;
1172 [label="gini = 0.0\nsamples = 22\nvalue = [22, 0]"] ;
1168 -> 1172 ;
1173 [label="X[131] <= 81098.375\ngini = 0.444\nsamples = 6\nvalue = [4, 2]"] ;
1167 -> 1173 ;
1174 [label="gini = 0.0\nsamples = 1\nvalue = [0, 1]"] ;
1173 -> 1174 ;
1175 [label="X[131] <= 81540.719\ngini = 0.32\nsamples = 5\nvalue = [4, 1]"] ;
1173 -> 1175 ;
1176 [label="gini = 0.0\nsamples = 3\nvalue = [3, 0]"] ;
1175 -> 1176 ;
1177 [label="X[131] <= 81590.688\ngini = 0.5\nsamples = 2\nvalue = [1, 1]"] ;
1175 -> 1177 ;
1178 [label="gini = 0.0\nsamples = 1\nvalue = [0, 1]"] ;
1177 -> 1178 ;
1179 [label="gini = 0.0\nsamples = 1\nvalue = [1, 0]"] ;
1177 -> 1179 ;
1180 [label="gini = 0.0\nsamples = 2\nvalue = [0, 2]"] ;
1122 -> 1180 ;
1181 [label="gini = 0.0\nsamples = 12\nvalue = [12, 0]"] ;
1121 -> 1181 ;
1182 [label="gini = 0.0\nsamples = 1\nvalue = [0, 1]"] ;
1120 -> 1182 ;
1183 [label="X[1] <= 30.5\ngini = 0.444\nsamples = 3\nvalue = [1, 2]"] ;
1119 -> 1183 ;
1184 [label="gini = 0.0\nsamples = 1\nvalue = [1, 0]"] ;
1183 -> 1184 ;
1185 [label="gini = 0.0\nsamples = 2\nvalue = [0, 2]"] ;
1183 -> 1185 ;
1186 [label="gini = 0.0\nsamples = 1\nvalue = [0, 1]"] ;
952 -> 1186 ;
1187 [label="gini = 0.0\nsamples = 10\nvalue = [10, 0]"] ;
951 -> 1187 ;
1188 [label="X[131] <= 65918.219\ngini = 0.375\nsamples = 64\nvalue = [48, 16]"] ;
950 -> 1188 ;
1189 [label="X[131] <= 62296.953\ngini = 0.439\nsamples = 40\nvalue = [27, 13]"] ;
1188 -> 1189 ;
1190 [label="X[32] <= 0.5\ngini = 0.382\nsamples = 35\nvalue = [26, 9]"] ;
1189 -> 1190 ;
1191 [label="X[1] <= 28.5\ngini = 0.496\nsamples = 11\nvalue = [5, 6]"] ;
1190 -> 1191 ;
1192 [label="gini = 0.0\nsamples = 3\nvalue = [3, 0]"] ;
1191 -> 1192 ;
1193 [label="X[131] <= 59960.25\ngini = 0.375\nsamples = 8\nvalue = [2, 6]"] ;
1191 -> 1193 ;
1194 [label="gini = 0.0\nsamples = 6\nvalue = [0, 6]"] ;
1193 -> 1194 ;
1195 [label="gini = 0.0\nsamples = 2\nvalue = [2, 0]"] ;
1193 -> 1195 ;
1196 [label="X[131] <= 44020.242\ngini = 0.219\nsamples = 24\nvalue = [21, 3]"] ;
1190 -> 1196 ;
1197 [label="gini = 0.0\nsamples = 1\nvalue = [0, 1]"] ;
1196 -> 1197 ;
1198 [label="X[1] <= 28.5\ngini = 0.159\nsamples = 23\nvalue = [21, 2]"] ;
1196 -> 1198 ;
1199 [label="X[117] <= 7.5\ngini = 0.375\nsamples = 4\nvalue = [3, 1]"] ;
1198 -> 1199 ;
1200 [label="gini = 0.0\nsamples = 3\nvalue = [3, 0]"] ;
1199 -> 1200 ;
1201 [label="gini = 0.0\nsamples = 1\nvalue = [0, 1]"] ;
1199 -> 1201 ;
1202 [label="X[1] <= 30.5\ngini = 0.1\nsamples = 19\nvalue = [18, 1]"] ;
1198 -> 1202 ;
1203 [label="gini = 0.0\nsamples = 12\nvalue = [12, 0]"] ;
1202 -> 1203 ;
1204 [label="X[108] <= 1.5\ngini = 0.245\nsamples = 7\nvalue = [6, 1]"] ;
1202 -> 1204 ;
1205 [label="X[131] <= 50430.453\ngini = 0.444\nsamples = 3\nvalue = [2, 1]"] ;
1204 -> 1205 ;
1206 [label="gini = 0.0\nsamples = 1\nvalue = [1, 0]"] ;
1205 -> 1206 ;
1207 [label="X[131] <= 56920.938\ngini = 0.5\nsamples = 2\nvalue = [1, 1]"] ;
1205 -> 1207 ;
1208 [label="gini = 0.0\nsamples = 1\nvalue = [0, 1]"] ;
1207 -> 1208 ;
1209 [label="gini = 0.0\nsamples = 1\nvalue = [1, 0]"] ;
1207 -> 1209 ;
1210 [label="gini = 0.0\nsamples = 4\nvalue = [4, 0]"] ;
1204 -> 1210 ;
1211 [label="X[117] <= 4.5\ngini = 0.32\nsamples = 5\nvalue = [1, 4]"] ;
1189 -> 1211 ;
1212 [label="gini = 0.0\nsamples = 4\nvalue = [0, 4]"] ;
1211 -> 1212 ;
1213 [label="gini = 0.0\nsamples = 1\nvalue = [1, 0]"] ;
1211 -> 1213 ;
1214 [label="X[131] <= 83776.664\ngini = 0.219\nsamples = 24\nvalue = [21, 3]"] ;
1188 -> 1214 ;
1215 [label="X[104] <= 1.5\ngini = 0.159\nsamples = 23\nvalue = [21, 2]"] ;
1214 -> 1215 ;
1216 [label="X[131] <= 75119.5\ngini = 0.091\nsamples = 21\nvalue = [20, 1]"] ;
1215 -> 1216 ;
1217 [label="X[131] <= 73633.172\ngini = 0.198\nsamples = 9\nvalue = [8, 1]"] ;
1216 -> 1217 ;
1218 [label="gini = 0.0\nsamples = 8\nvalue = [8, 0]"] ;
1217 -> 1218 ;
1219 [label="gini = 0.0\nsamples = 1\nvalue = [0, 1]"] ;
1217 -> 1219 ;
1220 [label="gini = 0.0\nsamples = 12\nvalue = [12, 0]"] ;
1216 -> 1220 ;
1221 [label="X[131] <= 73762.141\ngini = 0.5\nsamples = 2\nvalue = [1, 1]"] ;
1215 -> 1221 ;
1222 [label="gini = 0.0\nsamples = 1\nvalue = [1, 0]"] ;
1221 -> 1222 ;
1223 [label="gini = 0.0\nsamples = 1\nvalue = [0, 1]"] ;
1221 -> 1223 ;
1224 [label="gini = 0.0\nsamples = 1\nvalue = [0, 1]"] ;
1214 -> 1224 ;
1225 [label="X[131] <= 40674.117\ngini = 0.423\nsamples = 23\nvalue = [16, 7]"] ;
923 -> 1225 ;
1226 [label="X[117] <= 16.5\ngini = 0.375\nsamples = 4\nvalue = [1, 3]"] ;
1225 -> 1226 ;
1227 [label="gini = 0.0\nsamples = 3\nvalue = [0, 3]"] ;
1226 -> 1227 ;
1228 [label="gini = 0.0\nsamples = 1\nvalue = [1, 0]"] ;
1226 -> 1228 ;
